{"learner":{"attributes":{"scikit_learn":"{\"_estimator_type\": \"regressor\"}"},"feature_names":[],"feature_types":[],"gradient_booster":{"model":{"cats":{"enc":[],"feature_segments":[],"sorted_idx":[]},"gbtree_model_param":{"num_parallel_tree":"1","num_trees":"200"},"iteration_indptr":[0,1,2,3,4,5,6,7,8,9,10,11,12,13,14,15,16,17,18,19,20,21,22,23,24,25,26,27,28,29,30,31,32,33,34,35,36,37,38,39,40,41,42,43,44,45,46,47,48,49,50,51,52,53,54,55,56,57,58,59,60,61,62,63,64,65,66,67,68,69,70,71,72,73,74,75,76,77,78,79,80,81,82,83,84,85,86,87,88,89,90,91,92,93,94,95,96,97,98,99,100,101,102,103,104,105,106,107,108,109,110,111,112,113,114,115,116,117,118,119,120,121,122,123,124,125,126,127,128,129,130,131,132,133,134,135,136,137,138,139,140,141,142,143,144,145,146,147,148,149,150,151,152,153,154,155,156,157,158,159,160,161,162,163,164,165,166,167,168,169,170,171,172,173,174,175,176,177,178,179,180,181,182,183,184,185,186,187,188,189,190,191,192,193,194,195,196,197,198,199,200],"tree_info":[0,0,0,0,0,0,0,0,0,0,0,0,0,0,0,0,0,0,0,0,0,0,0,0,0,0,0,0,0,0,0,0,0,0,0,0,0,0,0,0,0,0,0,0,0,0,0,0,0,0,0,0,0,0,0,0,0,0,0,0,0,0,0,0,0,0,0,0,0,0,0,0,0,0,0,0,0,0,0,0,0,0,0,0,0,0,0,0,0,0,0,0,0,0,0,0,0,0,0,0,0,0,0,0,0,0,0,0,0,0,0,0,0,0,0,0,0,0,0,0,0,0,0,0,0,0,0,0,0,0,0,0,0,0,0,0,0,0,0,0,0,0,0,0,0,0,0,0,0,0,0,0,0,0,0,0,0,0,0,0,0,0,0,0,0,0,0,0,0,0,0,0,0,0,0,0,0,0,0,0,0,0,0,0,0,0,0,0,0,0,0,0,0,0,0,0,0,0,0,0],"trees":[{"base_weights":[-2.4424475E-2,-8.356446E-1,6.7667824E-1,-1.606684E0,-5.2425855E-1,4.756451E-1,2.5954416E0,-1.993735E0,-7.8273124E-1,-5.8785284E-1,1.1221509E0,1.2862375E-1,9.134043E-1,3.9069433E0,1.1169837E0,-1.8070604E-1,-1.296465E-1,-2.178122E-2,-6.993506E-2,-7.11833E-2,-3.0175969E-2,1.6559882E-1,1.0810268E-2,-1.3536122E-1,1.4310722E-2,6.3196816E-2,1.3260435E-1,1.3313651E-1,3.8868576E-1,6.732961E-2,2.1845241E-1],"categories":[],"categories_nodes":[],"categories_segments":[],"categories_sizes":[],"default_left":[0,0,0,0,0,0,0,0,0,0,0,0,0,0,0,0,0,0,0,0,0,0,0,0,0,0,0,0,0,0,0],"id":0,"left_children":[1,3,5,7,9,11,13,15,17,19,21,23,25,27,29,-1,-1,-1,-1,-1,-1,-1,-1,-1,-1,-1,-1,-1,-1,-1,-1],"loss_changes":[5.39755E2,1.04584564E2,1.9479749E2,3.8344666E1,3.3587418E1,6.996156E1,8.820566E1,4.359619E0,1.6081448E0,1.8873375E1,1.0726183E1,2.3851366E1,1.718547E1,4.4618347E1,8.008909E0,0E0,0E0,0E0,0E0,0E0,0E0,0E0,0E0,0E0,0E0,0E0,0E0,0E0,0E0,0E0,0E0],"parents":[2147483647,0,0,1,1,2,2,3,3,4,4,5,5,6,6,7,7,8,8,9,9,10,10,11,11,12,12,13,13,14,14],"right_children":[2,4,6,8,10,12,14,16,18,20,22,24,26,28,30,-1,-1,-1,-1,-1,-1,-1,-1,-1,-1,-1,-1,-1,-1,-1,-1],"split_conditions":[5.23E0,4.97E0,-6.61E0,5.21E1,-6.58E0,5.53E0,8E-1,4.88E0,5.85E1,5.21E1,8E-1,-1.089E1,-4E-1,4.58E1,5.88E0,-1.8070604E-1,-1.296465E-1,-2.178122E-2,-6.993506E-2,-7.11833E-2,-3.0175969E-2,1.6559882E-1,1.0810268E-2,-1.3536122E-1,1.4310722E-2,6.3196816E-2,1.3260435E-1,1.3313651E-1,3.8868576E-1,6.732961E-2,2.1845241E-1],"split_indices":[0,0,1,3,1,0,5,0,3,3,5,1,5,3,0,0,0,0,0,0,0,0,0,0,0,0,0,0,0,0,0],"split_type":[0,0,0,0,0,0,0,0,0,0,0,0,0,0,0,0,0,0,0,0,0,0,0,0,0,0,0,0,0,0,0],"sum_hessian":[9.47E2,4.39E2,5.08E2,1.25E2,3.14E2,4.61E2,4.7E1,8.4E1,4.1E1,3.03E2,1.1E1,2.58E2,2.03E2,2.4E1,2.3E1,4.6E1,3.8E1,7E0,3.4E1,1.23E2,1.8E2,5E0,6E0,6E0,2.52E2,1.76E2,2.7E1,8E0,1.6E1,2.1E1,2E0],"tree_param":{"num_deleted":"0","num_feature":"8","num_nodes":"31","size_leaf_vector":"1"}},{"base_weights":[-1.5825108E-2,-1.6180287E-1,2.2000756E0,-5.088407E-1,1.4254047E-1,3.3794746E-1,9.3429273E-1,-3.2542533E-1,-1.2094454E0,9.9864155E-2,1.13898486E-1,5.551258E-2,1.0536092E-1,-9.498133E-2,-1.9757167E-2,-1.3998504E-1,-2.4152162E-2,3.4172006E-2,-8.109133E-3],"categories":[],"categories_nodes":[],"categories_segments":[],"categories_sizes":[],"default_left":[0,0,0,0,0,0,0,0,0,0,0,0,0,0,0,0,0,0,0],"id":1,"left_children":[1,3,5,7,9,-1,11,13,15,17,-1,-1,-1,-1,-1,-1,-1,-1,-1],"loss_changes":[3.0356912E2,9.3159195E1,1.4414978E2,5.23956E1,2.5403416E1,0E0,2.2890282E0,2.174295E1,4.0951164E1,3.0107666E1,0E0,0E0,0E0,0E0,0E0,0E0,0E0,0E0,0E0],"parents":[2147483647,0,0,1,1,2,2,3,3,4,4,6,6,7,7,8,8,9,9],"right_children":[2,4,6,8,10,-1,12,14,16,18,-1,-1,-1,-1,-1,-1,-1,-1,-1],"split_conditions":[-6.58E0,5.21E1,9.341E2,9.396E2,-6.67E0,3.3794746E-1,-6.44E0,-1.089E1,1E0,-3.6E0,1.13898486E-1,5.551258E-2,1.0536092E-1,-9.498133E-2,-1.9757167E-2,-1.3998504E-1,-2.4152162E-2,3.4172006E-2,-8.109133E-3],"split_indices":[1,3,4,4,1,0,1,1,7,5,0,0,0,0,0,0,0,0,0],"split_type":[0,0,0,0,0,0,0,0,0,0,0,0,0,0,0,0,0,0,0],"sum_hessian":[9.37E2,8.8E2,5.7E1,4.11E2,4.69E2,2.1E1,3.6E1,3.27E2,8.4E1,4.55E2,1.4E1,2.4E1,1.2E1,2.6E1,3.01E2,5.2E1,3.2E1,1.73E2,2.82E2],"tree_param":{"num_deleted":"0","num_feature":"8","num_nodes":"19","size_leaf_vector":"1"}},{"base_weights":[2.8288874E-3,-7.523463E-1,6.5891165E-1,-1.1797585E0,-3.26888E-1,4.712246E-1,2.3824015E0,-1.5923194E0,-7.0670766E-1,-5.930432E-1,-9.931665E-2,2.5495866E-1,1.1866708E0,3.360396E-1,1.282149E0,-1.4144933E-1,-7.834986E-2,8.198381E-3,-7.2330564E-2,-2.2358574E-2,-5.917055E-2,-2.692693E-2,2.5271222E-2,-5.9697838E-3,3.566191E-2,7.62582E-2,1.6156118E-1,6.261558E-2,2.1361394E-1],"categories":[],"categories_nodes":[],"categories_segments":[],"categories_sizes":[],"default_left":[0,0,0,0,0,0,0,0,0,0,0,0,0,0,0,0,0,0,0,0,0,0,0,0,0,0,0,0,0],"id":2,"left_children":[1,3,5,7,9,11,13,15,17,19,21,23,25,-1,27,-1,-1,-1,-1,-1,-1,-1,-1,-1,-1,-1,-1,-1,-1],"loss_changes":[4.6472998E2,7.87486E1,1.6097731E2,4.0994965E1,1.3197109E1,6.979918E1,9.20838E1,1.0385376E1,1.6627415E1,4.33379E0,1.1930329E1,2.2081558E1,1.819197E1,0E0,1.974894E1,0E0,0E0,0E0,0E0,0E0,0E0,0E0,0E0,0E0,0E0,0E0,0E0,0E0,0E0],"parents":[2147483647,0,0,1,1,2,2,3,3,4,4,5,5,6,6,7,7,8,8,9,9,10,10,11,11,12,12,14,14],"right_children":[2,4,6,8,10,12,14,16,18,20,22,24,26,-1,28,-1,-1,-1,-1,-1,-1,-1,-1,-1,-1,-1,-1,-1,-1],"split_conditions":[5.24E0,5.07E0,-6.61E0,5.21E1,5.4E1,5.71E0,9.341E2,5E0,5.85E1,3.43E1,3.4E0,5.37E0,5.91E0,3.360396E-1,5.92E0,-1.4144933E-1,-7.834986E-2,8.198381E-3,-7.2330564E-2,-2.2358574E-2,-5.917055E-2,-2.692693E-2,2.5271222E-2,-5.9697838E-3,3.566191E-2,7.62582E-2,1.6156118E-1,6.261558E-2,2.1361394E-1],"split_indices":[0,0,1,3,3,0,4,0,3,3,2,0,0,0,0,0,0,0,0,0,0,0,0,0,0,0,0,0,0],"split_type":[0,0,0,0,0,0,0,0,0,0,0,0,0,0,0,0,0,0,0,0,0,0,0,0,0,0,0,0,0],"sum_hessian":[9.36E2,4.35E2,5.01E2,2.16E2,2.19E2,4.53E2,4.8E1,1.14E2,1.02E2,1E2,1.19E2,3.49E2,1.04E2,1.7E1,3.1E1,8.7E1,2.7E1,2E1,8.2E1,3.3E1,6.7E1,7.6E1,4.3E1,1.28E2,2.21E2,8.3E1,2.1E1,2.4E1,7E0],"tree_param":{"num_deleted":"0","num_feature":"8","num_nodes":"29","size_leaf_vector":"1"}},{"base_weights":[1.563138E-2,-6.953667E-1,6.0738623E-1,-1.0565935E0,-3.186796E-1,4.385376E-1,2.2331934E0,-1.6877126E0,-8.5791063E-1,-3.5549492E-1,8.1176084E-1,1.0587349E-1,8.5536283E-1,3.1091654E-1,1.2303203E0,-1.3907455E-1,-1.9718893E-2,-5.819303E-4,-8.022662E-2,-7.481446E-3,-3.9110225E-2,1.5344864E-1,-0E0,-1.0242781E-2,2.6763221E-2,6.07455E-2,1.4245486E-1,3.3787724E-2,1.7854665E-1],"categories":[],"categories_nodes":[],"categories_segments":[],"categories_sizes":[],"default_left":[0,0,0,0,0,0,0,0,0,0,0,0,0,0,0,0,0,0,0,0,0,0,0,0,0,0,0,0,0],"id":3,"left_children":[1,3,5,7,9,11,13,15,17,19,21,23,25,-1,27,-1,-1,-1,-1,-1,-1,-1,-1,-1,-1,-1,-1,-1,-1],"loss_changes":[4.038999E2,5.885208E1,1.425995E2,2.613469E1,9.19072E0,6.58168E1,7.59494E1,3.1741028E0,2.0971909E1,7.199173E0,6.424726E0,1.42910385E1,1.7145828E1,0E0,2.4686253E1,0E0,0E0,0E0,0E0,0E0,0E0,0E0,0E0,0E0,0E0,0E0,0E0,0E0,0E0],"parents":[2147483647,0,0,1,1,2,2,3,3,4,4,5,5,6,6,7,7,8,8,9,9,10,10,11,11,12,12,14,14],"right_children":[2,4,6,8,10,12,14,16,18,20,22,24,26,-1,28,-1,-1,-1,-1,-1,-1,-1,-1,-1,-1,-1,-1,-1,-1],"split_conditions":[5.23E0,5.07E0,-6.61E0,1.3E0,-6.58E0,5.53E0,9.341E2,5.06E0,1.4E0,-3.6E0,5.09E0,5.36E0,5.91E0,3.1091654E-1,5.82E0,-1.3907455E-1,-1.9718893E-2,-5.819303E-4,-8.022662E-2,-7.481446E-3,-3.9110225E-2,1.5344864E-1,-0E0,-1.0242781E-2,2.6763221E-2,6.07455E-2,1.4245486E-1,3.3787724E-2,1.7854665E-1],"split_indices":[0,0,1,6,1,0,4,0,6,5,0,0,0,0,0,0,0,0,0,0,0,0,0,0,0,0,0,0,0],"split_type":[0,0,0,0,0,0,0,0,0,0,0,0,0,0,0,0,0,0,0,0,0,0,0,0,0,0,0,0,0],"sum_hessian":[9.58E2,4.35E2,5.23E2,2.21E2,2.14E2,4.75E2,4.8E1,5.1E1,1.7E2,2.08E2,6E0,2.65E2,2.1E2,1.7E1,3.1E1,4.9E1,2E0,2.5E1,1.45E2,7.1E1,1.37E2,2E0,4E0,1.31E2,1.34E2,1.92E2,1.8E1,1.8E1,1.3E1],"tree_param":{"num_deleted":"0","num_feature":"8","num_nodes":"29","size_leaf_vector":"1"}},{"base_weights":[2.8896885E-2,-6.010501E-1,5.3639E-1,-1.1985266E0,-3.8344958E-1,3.874937E-1,1.95463E0,-1.4684381E0,-6.3873756E-1,-4.2682812E-1,1.093996E0,2.144091E-1,9.394845E-1,3.5700352E0,9.8175746E-1,-1.3919936E-1,-8.9062266E-2,-6.245278E-2,-1.2263171E-2,-8.436146E-2,-2.7805772E-2,1.7006479E-1,-1.0929358E-2,-1.05490476E-1,2.026249E-2,6.0573936E-2,1.3170695E-1,1.896673E-1,3.2868293E-1,3.8078725E-2,2.1646461E-1],"categories":[],"categories_nodes":[],"categories_segments":[],"categories_sizes":[],"default_left":[0,0,0,0,0,0,0,0,0,0,0,0,0,0,0,0,0,0,0,0,0,0,0,0,0,0,0,0,0,0,0],"id":4,"left_children":[1,3,5,7,9,11,13,15,17,19,21,23,25,27,29,-1,-1,-1,-1,-1,-1,-1,-1,-1,-1,-1,-1,-1,-1,-1,-1],"loss_changes":[2.995493E2,5.3726913E1,1.0860594E2,1.5622726E1,2.0139778E1,4.4683044E1,7.3047516E1,4.914505E0,2.4049797E0,1.4417728E1,1.1917214E1,2.1680698E1,1.2946129E1,1.2351837E0,2.6297218E1,0E0,0E0,0E0,0E0,0E0,0E0,0E0,0E0,0E0,0E0,0E0,0E0,0E0,0E0,0E0,0E0],"parents":[2147483647,0,0,1,1,2,2,3,3,4,4,5,5,6,6,7,7,8,8,9,9,10,10,11,11,12,12,13,13,14,14],"right_children":[2,4,6,8,10,12,14,16,18,20,22,24,26,28,30,-1,-1,-1,-1,-1,-1,-1,-1,-1,-1,-1,-1,-1,-1,-1,-1],"split_conditions":[5.23E0,4.96E0,-6.61E0,5.21E1,-6.58E0,5.71E0,9.341E2,4.87E0,9.388E2,1.1E0,9.341E2,-1.089E1,5.91E0,5.31E0,5.97E0,-1.3919936E-1,-8.9062266E-2,-6.245278E-2,-1.2263171E-2,-8.436146E-2,-2.7805772E-2,1.7006479E-1,-1.0929358E-2,-1.05490476E-1,2.026249E-2,6.0573936E-2,1.3170695E-1,1.896673E-1,3.2868293E-1,3.8078725E-2,2.1646461E-1],"split_indices":[0,0,1,3,1,0,4,0,4,6,4,1,0,0,0,0,0,0,0,0,0,0,0,0,0,0,0,0,0,0,0],"split_type":[0,0,0,0,0,0,0,0,0,0,0,0,0,0,0,0,0,0,0,0,0,0,0,0,0,0,0,0,0,0,0],"sum_hessian":[9.35E2,4.17E2,5.18E2,1.1E2,3.07E2,4.7E2,4.8E1,7.3E1,3.7E1,2.99E2,8E0,3.59E2,1.11E2,1.7E1,3.1E1,3.9E1,3.4E1,2.8E1,9E0,3.2E1,2.67E2,4E0,4E0,8E0,3.51E2,9E1,2.1E1,7E0,1E1,2.5E1,6E0],"tree_param":{"num_deleted":"0","num_feature":"8","num_nodes":"31","size_leaf_vector":"1"}},{"base_weights":[2.5447879E-2,-6.4881504E-1,4.5723873E-1,-9.8392373E-1,-3.3040267E-1,2.7743623E-1,1.4303237E0,-1.3935767E0,-6.3995194E-1,-5.721672E-1,3.3630498E-2,7.011404E-2,8.617042E-1,2.719708E-1,1.2011079E0,-1.3212238E-1,-9.716143E-2,-3.6651634E-2,-7.011418E-2,-6.475639E-3,-5.900584E-2,1.3901962E-2,-6.715369E-2,-9.923253E-3,2.0027187E-2,5.8172062E-2,1.3722779E-1,8.19755E-2,2.1891649E-1],"categories":[],"categories_nodes":[],"categories_segments":[],"categories_sizes":[],"default_left":[0,0,0,0,0,0,0,0,0,0,0,0,0,0,0,0,0,0,0,0,0,0,0,0,0,0,0,0,0],"id":5,"left_children":[1,3,5,7,9,11,13,15,17,19,21,23,25,-1,27,-1,-1,-1,-1,-1,-1,-1,-1,-1,-1,-1,-1,-1,-1],"loss_changes":[2.8268384E2,3.9983826E1,1.0301055E2,2.4832092E1,1.732312E1,6.0533394E1,3.6985138E1,1.5412445E0,3.8502731E0,9.446053E0,9.745192E0,1.3025598E1,1.3555168E1,0E0,1.9571854E1,0E0,0E0,0E0,0E0,0E0,0E0,0E0,0E0,0E0,0E0,0E0,0E0,0E0,0E0],"parents":[2147483647,0,0,1,1,2,2,3,3,4,4,5,5,6,6,7,7,8,8,9,9,10,10,11,11,12,12,14,14],"right_children":[2,4,6,8,10,12,14,16,18,20,22,24,26,-1,28,-1,-1,-1,-1,-1,-1,-1,-1,-1,-1,-1,-1,-1,-1],"split_conditions":[5.18E0,5.21E1,-4E-1,5E0,3.4E0,5.66E0,4.3E0,4.85E0,4.65E1,-4.5E0,1.06E1,5.21E1,5.94E0,2.719708E-1,5.89E0,-1.3212238E-1,-9.716143E-2,-3.6651634E-2,-7.011418E-2,-6.475639E-3,-5.900584E-2,1.3901962E-2,-6.715369E-2,-9.923253E-3,2.0027187E-2,5.8172062E-2,1.3722779E-1,8.19755E-2,2.1891649E-1],"split_indices":[0,3,5,0,2,0,2,0,3,5,2,3,0,0,0,0,0,0,0,0,0,0,0,0,0,0,0,0,0],"split_type":[0,0,0,0,0,0,0,0,0,0,0,0,0,0,0,0,0,0,0,0,0,0,0,0,0,0,0,0,0],"sum_hessian":[9.69E2,3.78E2,5.91E2,1.83E2,1.95E2,5E2,9.1E1,8.2E1,1.01E2,1.17E2,7.8E1,3.7E2,1.3E2,8E0,8.3E1,3E1,5.2E1,5.9E1,4.2E1,3E1,8.7E1,6.8E1,1E1,1.78E2,1.92E2,1.14E2,1.6E1,7.6E1,7E0],"tree_param":{"num_deleted":"0","num_feature":"8","num_nodes":"29","size_leaf_vector":"1"}},{"base_weights":[3.7142097E-3,-4.1993243E-1,6.51368E-1,-1.0310034E0,-2.3861913E-1,5.6328166E-1,2.1729283E0,-1.4726964E0,-8.383653E-1,-3.07332E-1,1.1455112E0,1.3230299E0,4.536604E-1,1.5205016E0,2.0475309E-1,-1.1969211E-1,-2.0194488E-2,-1.11695394E-1,-5.6952715E-2,-9.3902625E-2,-2.2303686E-2,1.7349988E-1,7.2364387E-4,6.918511E-2,2.61152E-1,2.2635248E-2,6.4386465E-2,1.627134E-1,4.642417E-2],"categories":[],"categories_nodes":[],"categories_segments":[],"categories_sizes":[],"default_left":[0,0,0,0,0,0,0,0,0,0,0,0,0,0,0,0,0,0,0,0,0,0,0,0,0,0,0,0,0],"id":6,"left_children":[1,3,5,7,9,11,13,15,17,19,21,23,25,27,-1,-1,-1,-1,-1,-1,-1,-1,-1,-1,-1,-1,-1,-1,-1],"loss_changes":[2.587592E2,6.2780327E1,4.8495117E1,9.595535E0,4.221068E1,2.8704865E1,7.434845E-1,5.3507996E-1,5.355522E0,9.93671E0,2.4182957E1,3.5904922E1,1.8308502E1,3.3854237E0,0E0,0E0,0E0,0E0,0E0,0E0,0E0,0E0,0E0,0E0,0E0,0E0,0E0,0E0,0E0],"parents":[2147483647,0,0,1,1,2,2,3,3,4,4,5,5,6,6,7,7,8,8,9,9,10,10,11,11,12,12,13,13],"right_children":[2,4,6,8,10,12,14,16,18,20,22,24,26,28,-1,-1,-1,-1,-1,-1,-1,-1,-1,-1,-1,-1,-1,-1,-1],"split_conditions":[5.36E0,4.97E0,5.94E0,4.84E0,-6.58E0,9.341E2,5.97E0,-4E-1,-7E0,-1.089E1,9.341E2,-6.8E0,5.69E0,-2.6E0,2.0475309E-1,-1.1969211E-1,-2.0194488E-2,-1.11695394E-1,-5.6952715E-2,-9.3902625E-2,-2.2303686E-2,1.7349988E-1,7.2364387E-4,6.918511E-2,2.61152E-1,2.2635248E-2,6.4386465E-2,1.627134E-1,4.642417E-2],"split_indices":[0,0,0,0,1,4,0,5,1,1,4,1,0,5,0,0,0,0,0,0,0,0,0,0,0,0,0,0,0],"split_type":[0,0,0,0,0,0,0,0,0,0,0,0,0,0,0,0,0,0,0,0,0,0,0,0,0,0,0,0,0],"sum_hessian":[9.41E2,5.69E2,3.72E2,1.29E2,4.4E2,3.53E2,1.9E1,3.7E1,9.2E1,4.2E2,2E1,4.3E1,3.1E2,9E0,1E1,3.6E1,1E0,1.5E1,7.7E1,1.2E1,4.08E2,1E1,1E1,3.6E1,7E0,2.1E2,1E2,5E0,4E0],"tree_param":{"num_deleted":"0","num_feature":"8","num_nodes":"29","size_leaf_vector":"1"}},{"base_weights":[-8.0785673E-4,-5.4674155E-1,3.7392324E-1,-8.602237E-1,-2.708424E-1,1.9494475E-1,1.0282332E0,-1.4084706E0,-6.8371403E-1,-3.4474644E-1,9.566522E-1,-8.3587386E-2,4.4016954E-1,7.737163E-1,1.7088048E0,-1.5484387E-1,-9.496534E-2,-8.127087E-2,-4.6564247E-2,-2.0798184E-3,-4.155541E-2,1.471871E-1,2.180632E-2,-3.2123815E-2,2.1819822E-2,2.416984E-2,9.8032475E-2,4.9909312E-2,1.7753546E-1,1.5165311E-1,-3.8500673E-3],"categories":[],"categories_nodes":[],"categories_segments":[],"categories_sizes":[],"default_left":[0,0,0,0,0,0,0,0,0,0,0,0,0,0,0,0,0,0,0,0,0,0,0,0,0,0,0,0,0,0,0],"id":7,"left_children":[1,3,5,7,9,11,13,15,17,19,21,23,25,27,29,-1,-1,-1,-1,-1,-1,-1,-1,-1,-1,-1,-1,-1,-1,-1,-1],"loss_changes":[1.9498029E2,3.3211815E1,6.584292E1,1.6343323E1,1.9137709E1,3.046728E1,1.9388885E1,2.4080887E0,3.9427872E0,1.09017315E1,6.5372295E0,2.3802193E1,2.5167622E1,1.7825611E1,1.078154E1,0E0,0E0,0E0,0E0,0E0,0E0,0E0,0E0,0E0,0E0,0E0,0E0,0E0,0E0,0E0,0E0],"parents":[2147483647,0,0,1,1,2,2,3,3,4,4,5,5,6,6,7,7,8,8,9,9,10,10,11,11,12,12,13,13,14,14],"right_children":[2,4,6,8,10,12,14,16,18,20,22,24,26,28,30,-1,-1,-1,-1,-1,-1,-1,-1,-1,-1,-1,-1,-1,-1,-1,-1],"split_conditions":[5.18E0,5.21E1,5.71E0,4.88E0,-6.67E0,5.4E1,5.91E0,-7.2E0,1.1E0,-3.6E0,8E-1,5.4E0,-6.67E0,7.87E1,2.5E0,-1.5484387E-1,-9.496534E-2,-8.127087E-2,-4.6564247E-2,-2.0798184E-3,-4.155541E-2,1.471871E-1,2.180632E-2,-3.2123815E-2,2.1819822E-2,2.416984E-2,9.8032475E-2,4.9909312E-2,1.7753546E-1,1.5165311E-1,-3.8500673E-3],"split_indices":[0,3,0,0,1,3,0,1,6,5,5,0,1,3,6,0,0,0,0,0,0,0,0,0,0,0,0,0,0,0,0],"split_type":[0,0,0,0,0,0,0,0,0,0,0,0,0,0,0,0,0,0,0,0,0,0,0,0,0,0,0,0,0,0,0],"sum_hessian":[9.51E2,3.87E2,5.64E2,1.8E2,2.07E2,4.44E2,1.2E2,4.2E1,1.38E2,1.96E2,1.1E1,2.08E2,2.36E2,8.9E1,3.1E1,1E1,3.2E1,3E1,1.08E2,7E1,1.26E2,4E0,7E0,1.1E2,9.8E1,2.02E2,3.4E1,8.2E1,7E0,2.8E1,3E0],"tree_param":{"num_deleted":"0","num_feature":"8","num_nodes":"31","size_leaf_vector":"1"}},{"base_weights":[6.4758287E-4,-7.6403695E-1,2.2618732E-1,-1.03038E0,-4.3112448E-1,5.795815E-3,6.479582E-1,-1.1565585E0,-5.585725E-1,-5.2872145E-1,-0E0,-5.3817146E-2,1.00725E0,5.4184866E-1,1.8308204E0,-1.0618901E-1,-6.1953265E-2,-1.064458E-2,-6.06706E-2,-2.7413298E-3,-5.5524606E-2,-2.531866E-2,5.8409147E-2,-5.090685E-2,1.7284993E-3,1.6110232E-1,1.4651997E-2,9.858917E-2,3.388168E-2,1.687904E-1,1.2968947E-2],"categories":[],"categories_nodes":[],"categories_segments":[],"categories_sizes":[],"default_left":[0,0,0,0,0,0,0,0,0,0,0,0,0,0,0,0,0,0,0,0,0,0,0,0,0,0,0,0,0,0,0],"id":8,"left_children":[1,3,5,7,9,11,13,15,17,19,21,23,25,27,29,-1,-1,-1,-1,-1,-1,-1,-1,-1,-1,-1,-1,-1,-1,-1,-1],"loss_changes":[1.620653E2,1.838478E1,6.7416E1,6.2072372E0,4.0549374E0,2.8685984E1,3.0023445E1,4.7668686E0,2.105547E0,6.3617306E0,4.6006646E0,1.9934076E1,2.1807463E1,1.8105118E1,8.744141E0,0E0,0E0,0E0,0E0,0E0,0E0,0E0,0E0,0E0,0E0,0E0,0E0,0E0,0E0,0E0,0E0],"parents":[2147483647,0,0,1,1,2,2,3,3,4,4,5,5,6,6,7,7,8,8,9,9,10,10,11,11,12,12,13,13,14,14],"right_children":[2,4,6,8,10,12,14,16,18,20,22,24,26,28,30,-1,-1,-1,-1,-1,-1,-1,-1,-1,-1,-1,-1,-1,-1,-1,-1],"split_conditions":[5.07E0,5.21E1,5.52E0,5E0,7.75E1,-6.58E0,5.94E0,-6.67E0,-7E0,5.85E1,5E0,1.3E0,9.341E2,9.341E2,7.49E1,-1.0618901E-1,-6.1953265E-2,-1.064458E-2,-6.06706E-2,-2.7413298E-3,-5.5524606E-2,-2.531866E-2,5.8409147E-2,-5.090685E-2,1.7284993E-3,1.6110232E-1,1.4651997E-2,9.858917E-2,3.388168E-2,1.687904E-1,1.2968947E-2],"split_indices":[0,3,0,0,3,1,0,1,1,3,0,6,4,4,3,0,0,0,0,0,0,0,0,0,0,0,0,0,0,0,0],"split_type":[0,0,0,0,0,0,0,0,0,0,0,0,0,0,0,0,0,0,0,0,0,0,0,0,0,0,0,0,0,0,0],"sum_hessian":[9.38E2,2.13E2,7.25E2,1.17E2,9.6E1,4.77E2,2.48E2,9.1E1,2.6E1,7.8E1,1.8E1,4.51E2,2.6E1,2.29E2,1.9E1,6.1E1,3E1,9E0,1.7E1,2E1,5.8E1,1.3E1,5E0,5.1E1,4E2,1.1E1,1.5E1,3.2E1,1.97E2,1.6E1,3E0],"tree_param":{"num_deleted":"0","num_feature":"8","num_nodes":"31","size_leaf_vector":"1"}},{"base_weights":[1.6297096E-2,-6.6358E-2,1.3210855E0,-6.6069114E-1,3.8851947E-2,2.0941667E-1,4.654629E-1,-7.489266E-1,-1.1971466E-1,-1.577672E-1,1.6661602E-1,2.1170763E-2,5.6714E-2,-1.02954835E-1,-5.4708723E-2,-4.604216E-2,2.3716196E-2,-1.9225478E-3,-3.906291E-2,4.9294154E-3,2.9244127E-2],"categories":[],"categories_nodes":[],"categories_segments":[],"categories_sizes":[],"default_left":[0,0,0,0,0,0,0,0,0,0,0,0,0,0,0,0,0,0,0,0,0],"id":9,"left_children":[1,3,5,7,9,-1,11,13,15,17,19,-1,-1,-1,-1,-1,-1,-1,-1,-1,-1],"loss_changes":[1.01374E2,5.530163E1,6.0600754E1,6.1720085E0,1.889294E1,0E0,1.426331E0,2.9136238E0,3.9924064E0,1.3020857E1,9.459641E0,0E0,0E0,0E0,0E0,0E0,0E0,0E0,0E0,0E0,0E0],"parents":[2147483647,0,0,1,1,2,2,3,3,4,4,6,6,7,7,8,8,9,9,10,10],"right_children":[2,4,6,8,10,-1,12,14,16,18,20,-1,-1,-1,-1,-1,-1,-1,-1,-1,-1],"split_conditions":[-6.58E0,1.3E0,9.341E2,3.1E0,5.05E1,2.0941667E-1,-6.44E0,-1.089E1,-6.83E0,4.65E1,3.4E0,2.1170763E-2,5.6714E-2,-1.02954835E-1,-5.4708723E-2,-4.604216E-2,2.3716196E-2,-1.9225478E-3,-3.906291E-2,4.9294154E-3,2.9244127E-2],"split_indices":[1,6,4,2,3,0,1,1,1,3,2,0,0,0,0,0,0,0,0,0,0],"split_type":[0,0,0,0,0,0,0,0,0,0,0,0,0,0,0,0,0,0,0,0,0],"sum_hessian":[9.37E2,8.82E2,5.5E1,1.32E2,7.5E2,2.1E1,3.4E1,1.13E2,1.9E1,2.95E2,4.55E2,2E1,1.4E1,1E1,1.03E2,9E0,1E1,2.11E2,8.4E1,2.99E2,1.56E2],"tree_param":{"num_deleted":"0","num_feature":"8","num_nodes":"21","size_leaf_vector":"1"}},{"base_weights":[7.1098814E-3,-3.698273E-1,4.402875E-1,-6.545248E-1,-1.6310985E-1,2.2103834E-1,4.0731156E-1,-9.008617E-1,-3.7933785E-1,4.191296E-1,-2.7188334E-1,3.4024212E-1,1.3760722E0,-7.8038484E-2,-3.0874206E-2,-6.2198318E-3,-3.7496813E-2,1.2150425E-2,1.3523878E-1,-8.023803E-4,-3.3204954E-2,1.0399988E-2,3.8494237E-2,3.0883288E-2,1.4555624E-1],"categories":[],"categories_nodes":[],"categories_segments":[],"categories_sizes":[],"default_left":[0,0,0,0,0,0,0,0,0,0,0,0,0,0,0,0,0,0,0,0,0,0,0,0,0],"id":10,"left_children":[1,3,5,7,9,-1,11,13,15,17,19,21,23,-1,-1,-1,-1,-1,-1,-1,-1,-1,-1,-1,-1],"loss_changes":[1.5577644E2,2.9825974E1,3.2564835E1,1.4037018E1,1.89089E1,0E0,2.7883865E1,3.7908936E0,2.685155E0,1.5528144E1,9.363777E0,1.2084164E1,1.1367973E1,0E0,0E0,0E0,0E0,0E0,0E0,0E0,0E0,0E0,0E0,0E0,0E0],"parents":[2147483647,0,0,1,1,2,2,3,3,4,4,6,6,7,7,8,8,9,9,10,10,11,11,12,12],"right_children":[2,4,6,8,10,-1,12,14,16,18,20,22,24,-1,-1,-1,-1,-1,-1,-1,-1,-1,-1,-1,-1],"split_conditions":[5.29E0,5.06E0,9.314E2,5.21E1,9.343E2,2.2103834E-1,5.91E0,5.02E0,5.85E1,-0E0,-3.5E0,5.21E1,2.9E0,-7.8038484E-2,-3.0874206E-2,-6.2198318E-3,-3.7496813E-2,1.2150425E-2,1.3523878E-1,-8.023803E-4,-3.3204954E-2,1.0399988E-2,3.8494237E-2,3.0883288E-2,1.4555624E-1],"split_indices":[0,0,4,3,4,0,0,0,3,5,5,3,2,0,0,0,0,0,0,0,0,0,0,0,0],"split_type":[0,0,0,0,0,0,0,0,0,0,0,0,0,0,0,0,0,0,0,0,0,0,0,0,0],"sum_hessian":[9.52E2,5.09E2,4.43E2,2.13E2,2.96E2,5E0,4.38E2,1.11E2,1.02E2,4.6E1,2.5E2,4.11E2,2.7E1,9.6E1,1.5E1,2.4E1,7.8E1,3.9E1,7E0,8.9E1,1.61E2,1.66E2,2.45E2,9E0,1.8E1],"tree_param":{"num_deleted":"0","num_feature":"8","num_nodes":"25","size_leaf_vector":"1"}},{"base_weights":[9.049293E-3,-3.3948892E-1,4.9921915E-1,-6.0018134E-1,-1.1543012E-1,4.1725835E-1,1.3923076E0,-9.701419E-1,-3.9739653E-1,1.4155173E-1,-1.4787392E-1,9.998282E-1,3.2726467E-1,2.975813E-1,1.8718386E0,-9.052175E-2,-6.246181E-2,-2.9052602E-2,-6.652198E-2,-2.62785E-2,8.216327E-3,9.220501E-2,-1.7542703E-2,1.0878104E-2,3.8349457E-2,-3.995687E-3,1.0194424E-1,1.9609948E-1,1.0868148E-1],"categories":[],"categories_nodes":[],"categories_segments":[],"categories_sizes":[],"default_left":[0,0,0,0,0,0,0,0,0,0,0,0,0,0,0,0,0,0,0,0,0,0,0,0,0,0,0,0,0],"id":11,"left_children":[1,3,5,7,9,11,13,15,17,-1,19,21,23,25,27,-1,-1,-1,-1,-1,-1,-1,-1,-1,-1,-1,-1,-1,-1],"loss_changes":[1.5906938E2,3.1634438E1,2.7565811E1,1.8308334E1,1.8077875E1,1.8204315E1,1.6024597E1,1.6146317E0,2.0162716E0,0E0,1.3180619E1,9.097481E0,8.892933E0,3.9198947E0,2.8322067E0,0E0,0E0,0E0,0E0,0E0,0E0,0E0,0E0,0E0,0E0,0E0,0E0,0E0,0E0],"parents":[2147483647,0,0,1,1,2,2,3,3,4,4,5,5,6,6,7,7,8,8,10,10,11,11,12,12,13,13,14,14],"right_children":[2,4,6,8,10,12,14,16,18,-1,20,22,24,26,28,-1,-1,-1,-1,-1,-1,-1,-1,-1,-1,-1,-1,-1,-1],"split_conditions":[5.36E0,5.21E1,5.91E0,5E0,9.314E2,9.341E2,2.9E0,4.88E0,5.34E0,1.4155173E-1,5.15E0,1E0,5.21E1,9.371E2,1.6E0,-9.052175E-2,-6.246181E-2,-2.9052602E-2,-6.652198E-2,-2.62785E-2,8.216327E-3,9.220501E-2,-1.7542703E-2,1.0878104E-2,3.8349457E-2,-3.995687E-3,1.0194424E-1,1.9609948E-1,1.0868148E-1],"split_indices":[0,3,0,0,4,4,2,0,0,0,0,7,3,4,6,0,0,0,0,0,0,0,0,0,0,0,0,0,0],"split_type":[0,0,0,0,0,0,0,0,0,0,0,0,0,0,0,0,0,0,0,0,0,0,0,0,0,0,0,0,0],"sum_hessian":[9.29E2,5.43E2,3.86E2,2.5E2,2.93E2,3.55E2,3.1E1,8.7E1,1.63E2,4E0,2.89E2,4.6E1,3.09E2,1E1,2.1E1,4.4E1,4.3E1,1.53E2,1E1,1.68E2,1.21E2,4.1E1,5E0,1.38E2,1.71E2,8E0,2E0,8E0,1.3E1],"tree_param":{"num_deleted":"0","num_feature":"8","num_nodes":"29","size_leaf_vector":"1"}},{"base_weights":[-1.5404753E-2,-5.66192E-1,6.9693156E-2,-6.458748E-1,-7.400143E-2,6.496503E-3,7.793018E-1,-6.2804766E-2,-2.8088648E-2,-3.9301194E-2,2.725298E-2,2.8165457E-1,-5.976742E-2,1.6674596E-1,3.9336514E-1,3.753971E-2,-2.288244E-2,-1.0794553E-3,-2.7495937E-2,6.966444E-2,1.5766708E-2],"categories":[],"categories_nodes":[],"categories_segments":[],"categories_sizes":[],"default_left":[0,0,0,0,0,0,0,0,0,0,0,0,0,0,0,0,0,0,0,0,0],"id":12,"left_children":[1,3,5,7,9,11,13,-1,-1,-1,-1,15,17,-1,19,-1,-1,-1,-1,-1,-1],"loss_changes":[4.44758E1,4.861046E0,3.6734013E1,4.082695E0,3.4698722E0,1.3804977E1,3.2677284E1,0E0,0E0,0E0,0E0,1.5807022E1,7.9611273E0,0E0,4.6883564E0,0E0,0E0,0E0,0E0,0E0,0E0],"parents":[2147483647,0,0,1,1,2,2,3,3,4,4,5,5,6,6,11,11,12,12,14,14],"right_children":[2,4,6,8,10,12,14,-1,-1,-1,-1,16,18,-1,20,-1,-1,-1,-1,-1,-1],"split_conditions":[1.3E0,3.1E0,-0E0,1E0,-6.83E0,1.4E0,9.341E2,-6.2804766E-2,-2.8088648E-2,-3.9301194E-2,2.725298E-2,1E0,-6.62E0,1.6674596E-1,1E1,3.753971E-2,-2.288244E-2,-1.0794553E-3,-2.7495937E-2,6.966444E-2,1.5766708E-2],"split_indices":[6,2,5,7,1,6,4,0,0,0,0,7,1,0,2,0,0,0,0,0,0],"split_type":[0,0,0,0,0,0,0,0,0,0,0,0,0,0,0,0,0,0,0,0,0],"sum_hessian":[9.46E2,1.26E2,8.2E2,1.08E2,1.8E1,7.54E2,6.6E1,7.2E1,3.6E1,9E0,9E0,1.46E2,6.08E2,1.4E1,5.2E1,1.1E2,3.6E1,5.24E2,8.4E1,1.4E1,3.8E1],"tree_param":{"num_deleted":"0","num_feature":"8","num_nodes":"21","size_leaf_vector":"1"}},{"base_weights":[-1.140016E-2,-6.687235E-2,9.395242E-1,-5.0284475E-1,9.279036E-3,1.6590105E-1,3.7503567E-1,-7.58847E-1,-3.38279E-1,-1.5552911E-1,1.2007292E-1,3.8797922E-2,2.4588165E-1,-3.525572E-2,-6.3140124E-2,-3.4572314E-2,1.1849247E-2,-7.274121E-2,-9.056677E-3,1.0375435E-3,2.7024895E-2,-0E0,3.1026194E-2],"categories":[],"categories_nodes":[],"categories_segments":[],"categories_sizes":[],"default_left":[0,0,0,0,0,0,0,0,0,0,0,0,0,0,0,0,0,0,0,0,0,0,0],"id":13,"left_children":[1,3,5,7,9,-1,11,13,15,17,19,-1,21,-1,-1,-1,-1,-1,-1,-1,-1,-1,-1],"loss_changes":[4.9771427E1,2.9701538E1,3.2271156E1,5.236767E0,1.3910788E1,0E0,3.1883144E-1,2.2520065E-2,3.8822155E0,9.555786E0,1.0594715E1,0E0,6.562233E-1,0E0,0E0,0E0,0E0,0E0,0E0,0E0,0E0,0E0,0E0],"parents":[2147483647,0,0,1,1,2,2,3,3,4,4,6,6,7,7,8,8,9,9,10,10,12,12],"right_children":[2,4,6,8,10,-1,12,14,16,18,20,-1,22,-1,-1,-1,-1,-1,-1,-1,-1,-1,-1],"split_conditions":[-6.58E0,1.3E0,9.341E2,-6.83E0,5.05E1,1.6590105E-1,1.7E0,-2.7E0,3.1E0,2.11E1,3.4E0,3.8797922E-2,-6.51E0,-3.525572E-2,-6.3140124E-2,-3.4572314E-2,1.1849247E-2,-7.274121E-2,-9.056677E-3,1.0375435E-3,2.7024895E-2,-0E0,3.1026194E-2],"split_indices":[1,6,4,1,3,0,6,2,2,3,2,0,1,0,0,0,0,0,0,0,0,0,0],"split_type":[0,0,0,0,0,0,0,0,0,0,0,0,0,0,0,0,0,0,0,0,0,0,0],"sum_hessian":[9.43E2,8.92E2,5.1E1,1.32E2,7.6E2,1.6E1,3.5E1,5E1,8.2E1,3.05E2,4.55E2,1.7E1,1.8E1,6E0,4.4E1,6.9E1,1.3E1,1.5E1,2.9E2,3.06E2,1.49E2,7E0,1.1E1],"tree_param":{"num_deleted":"0","num_feature":"8","num_nodes":"23","size_leaf_vector":"1"}},{"base_weights":[-1.782673E-2,-2.9895616E-1,4.3128544E-1,-5.503572E-1,-1.3285355E-1,1.9720992E-1,4.013121E-1,-7.0615634E-2,-4.6144876E-1,-1.8392459E-1,7.114612E-1,2.5277552E-1,6.9173217E-1,-7.120076E-2,-3.1739082E-2,-4.480138E-2,-1.0617654E-2,9.5552325E-2,1.589224E-2,1.0487718E-2,3.7526317E-2,4.8872545E-2,1.14240766E-1],"categories":[],"categories_nodes":[],"categories_segments":[],"categories_sizes":[],"default_left":[0,0,0,0,0,0,0,0,0,0,0,0,0,0,0,0,0,0,0,0,0,0,0],"id":14,"left_children":[1,3,5,7,9,-1,11,-1,13,15,17,19,21,-1,-1,-1,-1,-1,-1,-1,-1,-1,-1],"loss_changes":[1.1842005E2,2.395314E1,2.0730965E1,6.2246933E0,1.5126992E1,0E0,1.5130966E1,0E0,4.5932274E0,6.2113485E0,4.576564E0,6.1425524E0,6.0649147E0,0E0,0E0,0E0,0E0,0E0,0E0,0E0,0E0,0E0,0E0],"parents":[2147483647,0,0,1,1,2,2,3,3,4,4,6,6,8,8,9,9,10,10,11,11,12,12],"right_children":[2,4,6,8,10,-1,12,-1,14,16,18,20,22,-1,-1,-1,-1,-1,-1,-1,-1,-1,-1],"split_conditions":[5.37E0,5.08E0,9.314E2,1.2E0,-6.58E0,1.9720992E-1,5.71E0,-7.0615634E-2,4.84E0,1.3E0,9.341E2,-1.5E0,5.97E0,-7.120076E-2,-3.1739082E-2,-4.480138E-2,-1.0617654E-2,9.5552325E-2,1.589224E-2,1.0487718E-2,3.7526317E-2,4.8872545E-2,1.14240766E-1],"split_indices":[0,0,4,6,1,0,0,0,0,6,4,5,0,0,0,0,0,0,0,0,0,0,0],"split_type":[0,0,0,0,0,0,0,0,0,0,0,0,0,0,0,0,0,0,0,0,0,0,0],"sum_hessian":[9.36E2,5.76E2,3.6E2,2.28E2,3.48E2,4E0,3.56E2,4.6E1,1.82E2,3.29E2,1.9E1,2.37E2,1.19E2,2.2E1,1.6E2,3.8E1,2.91E2,9E0,1E1,1.53E2,8.4E1,1.09E2,1E1],"tree_param":{"num_deleted":"0","num_feature":"8","num_nodes":"23","size_leaf_vector":"1"}},{"base_weights":[1.8649722E-2,-3.9121872E-1,2.559337E-1,-8.6608213E-1,-3.3295688E-1,7.40659E-2,4.916924E-1,-1.0088071E-1,-7.6184326E-1,3.2118075E-2,-4.0367177E-1,-1.379647E-1,2.2082305E-1,4.4565672E-1,1.8736088E0,-6.186113E-2,-1.23117985E-2,-5.899493E-3,8.326358E-2,-5.934106E-2,-2.5208153E-2,-2.5767446E-2,1.3200007E-2,8.038779E-2,1.5943632E-2,1.7369686E-1,3.326922E-2,2.382076E-2,1.866079E-1],"categories":[],"categories_nodes":[],"categories_segments":[],"categories_sizes":[],"default_left":[0,0,0,0,0,0,0,0,0,0,0,0,0,0,0,0,0,0,0,0,0,0,0,0,0,0,0,0,0],"id":15,"left_children":[1,3,5,7,9,11,13,-1,15,17,19,21,23,25,27,-1,-1,-1,-1,-1,-1,-1,-1,-1,-1,-1,-1,-1,-1],"loss_changes":[9.179826E1,9.164307E0,2.5547401E1,3.6019135E-1,8.05315E0,1.0587416E1,1.5473621E1,0E0,1.0465622E-2,5.6192513E0,7.446205E0,7.8228884E0,3.0718412E0,1.1844288E1,4.8288E0,0E0,0E0,0E0,0E0,0E0,0E0,0E0,0E0,0E0,0E0,0E0,0E0,0E0,0E0],"parents":[2147483647,0,0,1,1,2,2,3,3,4,4,5,5,6,6,8,8,9,9,10,10,11,11,12,12,13,13,14,14],"right_children":[2,4,6,8,10,12,14,-1,16,18,20,22,24,26,28,-1,-1,-1,-1,-1,-1,-1,-1,-1,-1,-1,-1,-1,-1],"split_conditions":[5.16E0,4.84E0,5.49E0,-6.96E0,9.341E2,5.21E1,-6.44E0,-1.0088071E-1,4.83E0,-6.8E0,9.357E2,5.37E0,9.314E2,9.314E2,5.69E0,-6.186113E-2,-1.23117985E-2,-5.899493E-3,8.326358E-2,-5.934106E-2,-2.5208153E-2,-2.5767446E-2,1.3200007E-2,8.038779E-2,1.5943632E-2,1.7369686E-1,3.326922E-2,2.382076E-2,1.866079E-1],"split_indices":[0,0,0,1,4,3,1,0,0,1,4,0,4,4,0,0,0,0,0,0,0,0,0,0,0,0,0,0,0],"split_type":[0,0,0,0,0,0,0,0,0,0,0,0,0,0,0,0,0,0,0,0,0,0,0,0,0,0,0,0,0],"sum_hessian":[9.42E2,3.45E2,5.97E2,3.6E1,3.09E2,3.38E2,2.59E2,5E0,3.1E1,5E1,2.59E2,1.38E2,2E2,2.52E2,7E0,3E1,1E0,4.6E1,4E0,5.2E1,2.07E2,8.6E1,5.2E1,4E0,1.96E2,3E0,2.49E2,2E0,5E0],"tree_param":{"num_deleted":"0","num_feature":"8","num_nodes":"29","size_leaf_vector":"1"}},{"base_weights":[-1.1647816E-2,-2.1927473E-1,3.435961E-1,-5.2197903E-1,-8.666318E-2,2.7811885E-1,1.0163205E0,-7.625295E-1,-3.8713583E-1,-1.248697E-1,5.042402E-1,7.533169E-1,1.9781616E-1,-2.1725662E-2,1.1731814E0,-1.1774231E-2,-6.1477423E-2,-3.600373E-2,-8.454657E-4,-6.652182E-2,-8.13751E-3,7.6481804E-2,1.0612032E-2,4.0942352E-2,1.435164E-1,3.7686296E-3,2.5618207E-2,1.0065513E-1,-3.7480865E-2],"categories":[],"categories_nodes":[],"categories_segments":[],"categories_sizes":[],"default_left":[0,0,0,0,0,0,0,0,0,0,0,0,0,0,0,0,0,0,0,0,0,0,0,0,0,0,0,0,0],"id":16,"left_children":[1,3,5,7,9,11,13,15,17,19,21,23,25,-1,27,-1,-1,-1,-1,-1,-1,-1,-1,-1,-1,-1,-1,-1,-1],"loss_changes":[6.880554E1,2.3537594E1,1.4740456E1,5.395977E0,9.303909E0,1.1776169E1,6.4693565E0,2.5547028E-2,2.720932E0,6.1532583E0,3.9612594E0,1.0162209E1,4.9477024E0,0E0,4.43647E0,0E0,0E0,0E0,0E0,0E0,0E0,0E0,0E0,0E0,0E0,0E0,0E0,0E0,0E0],"parents":[2147483647,0,0,1,1,2,2,3,3,4,4,5,5,6,6,7,7,8,8,9,9,10,10,11,11,12,12,14,14],"right_children":[2,4,6,8,10,12,14,16,18,20,22,24,26,-1,28,-1,-1,-1,-1,-1,-1,-1,-1,-1,-1,-1,-1,-1,-1],"split_conditions":[5.39E0,5.03E0,5.91E0,5.04E1,-6.58E0,9.341E2,9.327E2,-6.2E0,7.75E1,-1.089E1,1.03E1,-6.8E0,5.21E1,-2.1725662E-2,7.49E1,-1.1774231E-2,-6.1477423E-2,-3.600373E-2,-8.454657E-4,-6.652182E-2,-8.13751E-3,7.6481804E-2,1.0612032E-2,4.0942352E-2,1.435164E-1,3.7686296E-3,2.5618207E-2,1.0065513E-1,-3.7480865E-2],"split_indices":[0,0,0,3,1,4,4,2,3,1,2,1,3,0,3,0,0,0,0,0,0,0,0,0,0,0,0,0,0],"split_type":[0,0,0,0,0,0,0,0,0,0,0,0,0,0,0,0,0,0,0,0,0,0,0,0,0,0,0,0,0],"sum_hessian":[9.31E2,5.88E2,3.43E2,1.78E2,4.1E2,3.14E2,2.9E1,6.2E1,1.16E2,3.86E2,2.4E1,4.4E1,2.7E2,3E0,2.6E1,1E0,6.1E1,9.9E1,1.7E1,1.1E1,3.75E2,1E1,1.4E1,3.7E1,7E0,1.22E2,1.48E2,2.5E1,1E0],"tree_param":{"num_deleted":"0","num_feature":"8","num_nodes":"29","size_leaf_vector":"1"}},{"base_weights":[1.3773725E-3,-3.713007E-1,2.1016663E-1,-1.5073784E-2,-4.3296018E-1,1.0626712E-1,5.8215445E-1,-4.3341014E-1,2.0390058E-1,5.4453935E-2,-4.4747278E-1,-3.5090604E-1,1.6272017E-1,5.056244E-1,1.6604744E-1,-5.8920044E-2,2.2308327E-2,7.106656E-2,8.462688E-3,-5.5589255E-2,-3.0981652E-2,-7.839913E-2,-2.0880306E-2,3.0282166E-2,3.9992216E-3,3.419831E-2,1.0197178E-1],"categories":[],"categories_nodes":[],"categories_segments":[],"categories_sizes":[],"default_left":[0,0,0,0,0,0,0,0,0,0,0,0,0,0,0,0,0,0,0,0,0,0,0,0,0,0,0],"id":17,"left_children":[1,3,5,7,9,11,13,15,17,-1,19,21,23,25,-1,-1,-1,-1,-1,-1,-1,-1,-1,-1,-1,-1,-1],"loss_changes":[7.304881E1,7.3507957E0,2.3136206E1,4.7831755E0,4.9196777E0,1.2220045E1,1.366478E1,4.1369896E0,2.089865E0,0E0,3.852459E0,2.5610304E0,1.0180267E1,6.8569565E0,0E0,0E0,0E0,0E0,0E0,0E0,0E0,0E0,0E0,0E0,0E0,0E0,0E0],"parents":[2147483647,0,0,1,1,2,2,3,3,4,4,5,5,6,6,7,7,8,8,10,10,11,11,12,12,13,13],"right_children":[2,4,6,8,10,12,14,16,18,-1,20,22,24,26,-1,-1,-1,-1,-1,-1,-1,-1,-1,-1,-1,-1,-1],"split_conditions":[5.15E0,9.341E2,5.71E0,-6.81E0,-6.9E0,1.3E0,-6.44E0,5.01E0,4.86E0,5.4453935E-2,1.2E0,9.359E2,1.6E0,7.69E1,1.6604744E-1,-5.8920044E-2,2.2308327E-2,7.106656E-2,8.462688E-3,-5.5589255E-2,-3.0981652E-2,-7.839913E-2,-2.0880306E-2,3.0282166E-2,3.9992216E-3,3.419831E-2,1.0197178E-1],"split_indices":[0,4,0,1,5,6,1,0,0,0,6,4,6,3,0,0,0,0,0,0,0,0,0,0,0,0,0],"split_type":[0,0,0,0,0,0,0,0,0,0,0,0,0,0,0,0,0,0,0,0,0,0,0,0,0,0,0],"sum_hessian":[9.37E2,3.36E2,6.01E2,5E1,2.86E2,4.71E2,1.3E2,1.7E1,3.3E1,3E0,2.83E2,5.1E1,4.2E2,1.25E2,5E0,1.2E1,5E0,3E0,3E1,5.3E1,2.3E2,5E0,4.6E1,1.43E2,2.77E2,1.15E2,1E1],"tree_param":{"num_deleted":"0","num_feature":"8","num_nodes":"27","size_leaf_vector":"1"}},{"base_weights":[6.7845676E-3,-3.685249E-1,6.663725E-2,-6.1310434E-1,-2.277748E-1,2.910549E-2,6.09474E-1,-6.318974E-2,-4.216588E-2,2.7096322E-2,-2.7635172E-1,-2.7915161E-2,2.5654185E-1,1.1875166E-1,7.39473E-2,-2.9600479E-2,-1.2587087E-2,-2.477646E-2,6.358758E-4,1.6976E-2,6.469079E-2,-1.8901335E-2,2.2559779E-2],"categories":[],"categories_nodes":[],"categories_segments":[],"categories_sizes":[],"default_left":[0,0,0,0,0,0,0,0,0,0,0,0,0,0,0,0,0,0,0,0,0,0,0],"id":18,"left_children":[1,3,5,7,9,11,13,-1,-1,-1,15,17,19,-1,21,-1,-1,-1,-1,-1,-1,-1,-1],"loss_changes":[2.1401873E1,4.285883E0,1.668589E1,1.667366E-1,2.4263787E0,1.002879E1,2.4567228E1,0E0,0E0,0E0,7.695904E-1,6.2680564E0,3.5208502E0,0E0,2.26556E0,0E0,0E0,0E0,0E0,0E0,0E0,0E0,0E0],"parents":[2147483647,0,0,1,1,2,2,3,3,4,4,5,5,6,6,10,10,11,11,12,12,14,14],"right_children":[2,4,6,8,10,12,14,-1,-1,-1,16,18,20,-1,22,-1,-1,-1,-1,-1,-1,-1,-1],"split_conditions":[1.3E0,-6.83E0,-6.61E0,-1.089E1,-6.77E0,9.39E2,9.341E2,-6.318974E-2,-4.216588E-2,2.7096322E-2,1E0,2.22E1,-6.74E0,1.1875166E-1,-6.51E0,-2.9600479E-2,-1.2587087E-2,-2.477646E-2,6.358758E-4,1.6976E-2,6.469079E-2,-1.8901335E-2,2.2559779E-2],"split_indices":[6,1,1,1,1,4,4,0,0,0,7,3,1,0,1,0,0,0,0,0,0,0,0],"split_type":[0,0,0,0,0,0,0,0,0,0,0,0,0,0,0,0,0,0,0,0,0,0,0],"sum_hessian":[9.52E2,1.3E2,8.22E2,4.6E1,8.4E1,7.7E2,5.2E1,1.2E1,3.4E1,6E0,7.8E1,6.16E2,1.54E2,1.9E1,3.3E1,4.2E1,3.6E1,6.9E1,5.47E2,1.44E2,1E1,1.3E1,2E1],"tree_param":{"num_deleted":"0","num_feature":"8","num_nodes":"23","size_leaf_vector":"1"}},{"base_weights":[-9.99904E-4,-4.5682423E-2,6.7677563E-1,-4.142708E-1,1.55960675E-2,1.2931387E-1,2.7794734E-1,1.078561E-2,-4.5348728E-1,-8.9223586E-2,1.9083874E-1,5.1581985E-1,7.388379E-2,-4.0810555E-2,-2.3647726E-2,-1.4419387E-2,4.6847593E-3,-9.182578E-3,2.334495E-2,5.9820484E-2,2.979452E-2,-0E0,7.874701E-3],"categories":[],"categories_nodes":[],"categories_segments":[],"categories_sizes":[],"default_left":[0,0,0,0,0,0,0,0,0,0,0,0,0,0,0,0,0,0,0,0,0,0,0],"id":19,"left_children":[1,3,5,7,9,-1,11,-1,13,15,17,19,21,-1,-1,-1,-1,-1,-1,-1,-1,-1,-1],"loss_changes":[2.8405157E1,1.9967653E1,2.1097248E1,2.806219E0,1.3932427E1,0E0,1.9416454E0,0E0,8.2398415E-1,6.3985124E0,8.815298E0,2.4137545E-1,5.308339E-2,0E0,0E0,0E0,0E0,0E0,0E0,0E0,0E0,0E0,0E0],"parents":[2147483647,0,0,1,1,2,2,3,3,4,4,6,6,8,8,9,9,10,10,11,11,12,12],"right_children":[2,4,6,8,10,-1,12,-1,14,16,18,20,22,-1,-1,-1,-1,-1,-1,-1,-1,-1,-1],"split_conditions":[-6.61E0,1.3E0,9.341E2,9.358E2,9.371E2,1.2931387E-1,1.6E0,1.078561E-2,1E0,7.22E1,3.13E1,-6.58E0,-6.52E0,-4.0810555E-2,-2.3647726E-2,-1.4419387E-2,4.6847593E-3,-9.182578E-3,2.334495E-2,5.9820484E-2,2.979452E-2,-0E0,7.874701E-3],"split_indices":[1,6,4,4,4,0,6,0,7,3,3,1,1,0,0,0,0,0,0,0,0,0,0],"split_type":[0,0,0,0,0,0,0,0,0,0,0,0,0,0,0,0,0,0,0,0,0,0,0],"sum_hessian":[9.38E2,8.81E2,5.7E1,1.25E2,7.56E2,1.6E1,4.1E1,8E0,1.17E2,4.73E2,2.83E2,1.8E1,2.3E1,8.4E1,3.3E1,2.93E2,1.8E2,7E1,2.13E2,5E0,1.3E1,5E0,1.8E1],"tree_param":{"num_deleted":"0","num_feature":"8","num_nodes":"23","size_leaf_vector":"1"}},{"base_weights":[3.912971E-3,-1.8301745E-1,3.2629612E-1,-3.6239898E-1,-6.541211E-2,2.7399588E-1,1.3410722E0,-6.790229E-1,-3.0662972E-1,-3.1615627E-1,2.0769432E-2,8.128159E-1,2.0066209E-1,1.36937E-1,9.7420347E-1,-7.893003E-2,-4.8342388E-2,-5.872162E-3,-2.798928E-2,-6.940687E-2,-1.9191908E-2,4.1130353E-3,-3.5458833E-2,4.582839E-2,1.3508424E-1,8.54177E-3,3.039771E-2,3.242051E-2,9.817093E-2],"categories":[],"categories_nodes":[],"categories_segments":[],"categories_sizes":[],"default_left":[0,0,0,0,0,0,0,0,0,0,0,0,0,0,0,0,0,0,0,0,0,0,0,0,0,0,0,0,0],"id":20,"left_children":[1,3,5,7,9,11,13,15,17,19,21,23,25,-1,27,-1,-1,-1,-1,-1,-1,-1,-1,-1,-1,-1,-1,-1,-1],"loss_changes":[5.8107525E1,1.2802214E1,1.8258907E1,3.9487762E0,8.031627E0,1.3091185E1,3.7544823E-1,4.9404144E-2,2.0193577E0,3.6759262E0,3.9079773E0,7.2122765E0,4.944522E0,0E0,9.224167E-1,0E0,0E0,0E0,0E0,0E0,0E0,0E0,0E0,0E0,0E0,0E0,0E0,0E0,0E0],"parents":[2147483647,0,0,1,1,2,2,3,3,4,4,5,5,6,6,7,7,8,8,9,9,10,10,11,11,12,12,14,14],"right_children":[2,4,6,8,10,12,14,16,18,20,22,24,26,-1,28,-1,-1,-1,-1,-1,-1,-1,-1,-1,-1,-1,-1,-1,-1],"split_conditions":[5.39E0,5.09E0,5.96E0,4.84E0,-6.9E0,9.341E2,1.6E0,-6.96E0,9.341E2,-1.089E1,1.06E1,-6.8E0,5.71E0,1.36937E-1,1.7E0,-7.893003E-2,-4.8342388E-2,-5.872162E-3,-2.798928E-2,-6.940687E-2,-1.9191908E-2,4.1130353E-3,-3.5458833E-2,4.582839E-2,1.3508424E-1,8.54177E-3,3.039771E-2,3.242051E-2,9.817093E-2],"split_indices":[0,0,0,0,1,4,6,1,4,1,2,1,0,0,6,0,0,0,0,0,0,0,0,0,0,0,0,0,0],"split_type":[0,0,0,0,0,0,0,0,0,0,0,0,0,0,0,0,0,0,0,0,0,0,0,0,0,0,0,0,0],"sum_hessian":[9.62E2,6.09E2,3.53E2,2.4E2,3.69E2,3.37E2,1.6E1,3.4E1,2.06E2,9.4E1,2.75E2,3.9E1,2.98E2,6E0,1E1,4E0,3E1,3.3E1,1.73E2,1E1,8.4E1,2.59E2,1.6E1,3.2E1,7E0,1.97E2,1.01E2,4E0,6E0],"tree_param":{"num_deleted":"0","num_feature":"8","num_nodes":"29","size_leaf_vector":"1"}},{"base_weights":[-1.3477902E-4,-1.7663616E-1,2.7405003E-1,-3.3859587E-1,-5.1741075E-2,2.148888E-1,1.1212327E0,-6.6604036E-1,-2.4113193E-1,-7.084012E-1,-2.433312E-2,1.5709253E-1,4.844958E-1,1.3038611E0,-9.287415E-2,-8.256018E-2,-3.964929E-2,5.076969E-2,-2.1056235E-2,4.549652E-3,-6.281971E-2,-1.016753E-2,1.121105E-2,8.492774E-2,1.0711453E-2,5.9349637E-2,-7.4817995E-5,5.312439E-3,1.0859309E-1,-3.815049E-2,3.8365874E-2],"categories":[],"categories_nodes":[],"categories_segments":[],"categories_sizes":[],"default_left":[0,0,0,0,0,0,0,0,0,0,0,0,0,0,0,0,0,0,0,0,0,0,0,0,0,0,0,0,0,0,0],"id":21,"left_children":[1,3,5,7,9,11,13,15,17,19,21,23,25,27,29,-1,-1,-1,-1,-1,-1,-1,-1,-1,-1,-1,-1,-1,-1,-1,-1],"loss_changes":[4.6109753E1,1.1675671E1,1.8320353E1,7.7910137E0,5.8307366E0,5.313526E0,5.5637226E0,2.8907814E0,3.9183273E0,8.8199234E-1,5.374196E0,5.8236513E0,7.695984E0,1.1591225E0,1.107726E0,0E0,0E0,0E0,0E0,0E0,0E0,0E0,0E0,0E0,0E0,0E0,0E0,0E0,0E0,0E0,0E0],"parents":[2147483647,0,0,1,1,2,2,3,3,4,4,5,5,6,6,7,7,8,8,9,9,10,10,11,11,12,12,13,13,14,14],"right_children":[2,4,6,8,10,12,14,16,18,20,22,24,26,28,30,-1,-1,-1,-1,-1,-1,-1,-1,-1,-1,-1,-1,-1,-1,-1,-1],"split_conditions":[5.36E0,5.21E1,5.94E0,4.93E0,1.1E0,-4E-1,7.49E1,-6.81E0,-6.9E0,4.95E0,3.4E0,-5.3E0,1.03E1,-1.011E1,2.9E0,-8.256018E-2,-3.964929E-2,5.076969E-2,-2.1056235E-2,4.549652E-3,-6.281971E-2,-1.016753E-2,1.121105E-2,8.492774E-2,1.0711453E-2,5.9349637E-2,-7.4817995E-5,5.312439E-3,1.0859309E-1,-3.815049E-2,3.8365874E-2],"split_indices":[0,3,0,0,6,5,3,1,5,0,2,2,2,1,2,0,0,0,0,0,0,0,0,0,0,0,0,0,0,0,0],"split_type":[0,0,0,0,0,0,0,0,0,0,0,0,0,0,0,0,0,0,0,0,0,0,0,0,0,0,0,0,0,0,0],"sum_hessian":[9.51E2,5.79E2,3.72E2,2.51E2,3.28E2,3.49E2,2.3E1,5.6E1,1.95E2,1.2E1,3.16E2,2.89E2,6E1,2E1,3E0,1.6E1,4E1,4E0,1.91E2,1E0,1.1E1,1.95E2,1.21E2,6E0,2.83E2,3.9E1,2.1E1,1E0,1.9E1,2E0,1E0],"tree_param":{"num_deleted":"0","num_feature":"8","num_nodes":"31","size_leaf_vector":"1"}},{"base_weights":[2.1689687E-2,-2.9839954E-1,1.9617258E-1,-3.776709E-1,-1.0387761E-1,1.03017256E-1,5.0346583E-1,-6.158426E-1,-3.1843603E-1,-3.7603725E-2,-7.365996E-1,4.1849673E-1,5.9432216E-2,2.4937734E-1,7.3188436E-1,-8.247082E-2,-3.5864215E-2,-4.890577E-2,-2.03367E-2,7.31832E-3,-1.2994448E-2,-6.6407226E-2,-0E0,-1.9005086E-2,4.547655E-2,3.1202526E-3,4.43048E-2,-1.9257696E-2,2.5632199E-2,7.881954E-2,3.6483284E-2],"categories":[],"categories_nodes":[],"categories_segments":[],"categories_sizes":[],"default_left":[0,0,0,0,0,0,0,0,0,0,0,0,0,0,0,0,0,0,0,0,0,0,0,0,0,0,0,0,0,0,0],"id":22,"left_children":[1,3,5,7,9,11,13,15,17,19,21,23,25,27,29,-1,-1,-1,-1,-1,-1,-1,-1,-1,-1,-1,-1,-1,-1,-1,-1],"loss_changes":[5.2100605E1,4.9858036E0,1.7177588E1,2.9976463E0,3.9623766E0,6.3211718E0,7.8447533E0,2.5190601E0,3.3133755E0,1.4560106E0,6.2918854E-1,5.677576E0,4.0599837E0,2.4521298E0,4.508358E0,0E0,0E0,0E0,0E0,0E0,0E0,0E0,0E0,0E0,0E0,0E0,0E0,0E0,0E0,0E0,0E0],"parents":[2147483647,0,0,1,1,2,2,3,3,4,4,5,5,6,6,7,7,8,8,9,9,10,10,11,11,12,12,13,13,14,14],"right_children":[2,4,6,8,10,12,14,16,18,20,22,24,26,28,30,-1,-1,-1,-1,-1,-1,-1,-1,-1,-1,-1,-1,-1,-1,-1,-1],"split_conditions":[5.15E0,7.22E1,5.69E0,4.89E0,1E0,9.341E2,3.1E0,2E0,1.1E0,9.365E2,5.14E0,2.4E0,2.1E0,1.3E0,1.6E0,-8.247082E-2,-3.5864215E-2,-4.890577E-2,-2.03367E-2,7.31832E-3,-1.2994448E-2,-6.6407226E-2,-0E0,-1.9005086E-2,4.547655E-2,3.1202526E-3,4.43048E-2,-1.9257696E-2,2.5632199E-2,7.881954E-2,3.6483284E-2],"split_indices":[0,3,0,0,7,4,2,2,6,4,0,2,6,6,6,0,0,0,0,0,0,0,0,0,0,0,0,0,0,0,0],"split_type":[0,0,0,0,0,0,0,0,0,0,0,0,0,0,0,0,0,0,0,0,0,0,0,0,0,0,0,0,0,0,0],"sum_hessian":[9.31E2,3.28E2,6.03E2,2.32E2,9.6E1,4.64E2,1.39E2,4.4E1,1.88E2,8.8E1,8E0,5.5E1,4.09E2,6.7E1,7.2E1,1.1E1,3.3E1,3.2E1,1.56E2,4.3E1,4.5E1,7E0,1E0,1E1,4.5E1,3.94E2,1.5E1,8E0,5.9E1,3.6E1,3.6E1],"tree_param":{"num_deleted":"0","num_feature":"8","num_nodes":"31","size_leaf_vector":"1"}},{"base_weights":[2.0702314E-3,-2.3094058E-2,3.8326377E-1,-2.5611627E-1,1.5144935E-2,6.892986E-1,-1.0034268E-1,-4.0692877E-2,-1.9795924E-1,-6.3977644E-2,1.4176017E-1,7.856473E-2,3.317731E-2,-2.456655E-1,4.5695137E-3,-1.97221E-2,-7.841818E-3,1.0018817E-2,-9.468195E-3,1.852244E-2,-5.268882E-3,-1.0407262E-2,-2.4948755E-2],"categories":[],"categories_nodes":[],"categories_segments":[],"categories_sizes":[],"default_left":[0,0,0,0,0,0,0,0,0,0,0,0,0,0,0,0,0,0,0,0,0,0,0],"id":23,"left_children":[1,3,5,7,9,11,13,-1,15,17,19,-1,-1,21,-1,-1,-1,-1,-1,-1,-1,-1,-1],"loss_changes":[9.292004E0,8.092009E0,9.008088E0,1.7086115E0,7.8109484E0,2.4273605E0,5.8207315E-1,0E0,4.5586348E-1,4.942282E0,5.6232834E0,0E0,0E0,1.46894455E-2,0E0,0E0,0E0,0E0,0E0,0E0,0E0,0E0,0E0],"parents":[2147483647,0,0,1,1,2,2,3,3,4,4,5,5,6,6,8,8,9,9,10,10,13,13],"right_children":[2,4,6,8,10,12,14,-1,16,18,20,-1,-1,22,-1,-1,-1,-1,-1,-1,-1,-1,-1],"split_conditions":[-6.61E0,1.3E0,1.6E0,-7.35E0,9.371E2,9.341E2,-6.51E0,-4.0692877E-2,1E0,9.332E2,1.8E0,7.856473E-2,3.317731E-2,-6.52E0,4.5695137E-3,-1.97221E-2,-7.841818E-3,1.0018817E-2,-9.468195E-3,1.852244E-2,-5.268882E-3,-1.0407262E-2,-2.4948755E-2],"split_indices":[1,6,6,1,4,4,1,0,7,4,6,0,0,1,0,0,0,0,0,0,0,0,0],"split_type":[0,0,0,0,0,0,0,0,0,0,0,0,0,0,0,0,0,0,0,0,0,0,0],"sum_hessian":[9.63E2,9.04E2,5.9E1,1.27E2,7.77E2,3.6E1,2.3E1,2.2E1,1.05E2,4.78E2,2.99E2,1.6E1,2E1,1.2E1,1.1E1,6.9E1,3.6E1,1.06E2,3.72E2,2.09E2,9E1,6E0,6E0],"tree_param":{"num_deleted":"0","num_feature":"8","num_nodes":"23","size_leaf_vector":"1"}},{"base_weights":[-1.3947236E-2,-1.3079101E-1,8.3406895E-2,-1.4962775E-1,5.3827927E-2,9.974224E-2,6.028142E-2,-1.8880019E-1,3.1424653E-2,4.5091245E-1,1.0023971E-2,-3.620012E-2,-1.2544587E-2,5.949968E-3,-4.586716E-2,4.780691E-2,-2.4230488E-2,-5.701816E-3,1.1346442E-2],"categories":[],"categories_nodes":[],"categories_segments":[],"categories_sizes":[],"default_left":[0,0,0,0,0,0,0,0,0,0,0,0,0,0,0,0,0,0,0],"id":24,"left_children":[1,3,5,7,-1,-1,9,11,13,15,17,-1,-1,-1,-1,-1,-1,-1,-1],"loss_changes":[1.08562355E1,6.618227E0,1.378396E1,3.035883E0,0E0,0E0,9.981399E0,2.8209057E0,1.9668144E0,6.6230574E0,4.8819714E0,0E0,0E0,0E0,0E0,0E0,0E0,0E0,0E0],"parents":[2147483647,0,0,1,1,2,2,3,3,6,6,7,7,8,8,9,9,10,10],"right_children":[2,4,6,8,-1,-1,10,12,14,16,18,-1,-1,-1,-1,-1,-1,-1,-1],"split_conditions":[5.21E1,2.4E0,9.314E2,7.2E0,5.3827927E-2,9.974224E-2,5.69E1,9.357E2,1.01E1,1.13E1,3.4E0,-3.620012E-2,-1.2544587E-2,5.949968E-3,-4.586716E-2,4.780691E-2,-2.4230488E-2,-5.701816E-3,1.1346442E-2],"split_indices":[3,6,4,2,0,0,3,4,2,2,2,0,0,0,0,0,0,0,0],"split_type":[0,0,0,0,0,0,0,0,0,0,0,0,0,0,0,0,0,0,0],"sum_hessian":[9.52E2,4.33E2,5.19E2,4.24E2,9E0,9E0,5.1E2,3.49E2,7.5E1,5.7E1,4.53E2,3.6E1,3.13E2,7.1E1,4E0,4.8E1,9E0,2.8E2,1.73E2],"tree_param":{"num_deleted":"0","num_feature":"8","num_nodes":"19","size_leaf_vector":"1"}},{"base_weights":[-1.6113028E-3,-2.525381E-2,3.808225E-1,-1.1825252E-1,5.1041637E-2,7.246463E-1,7.5470516E-3,-1.3668112E-1,4.9952224E-2,2.8803218E-2,5.725629E-2,9.206412E-2,5.027394E-1,-7.965723E-2,1.4598438E-2,4.3108888E-2,-1.20216105E-2,1.3088592E-2,-4.3050656E-3,1.8019173E-2,4.7364533E-2,-1.3851684E-2,-1.8879189E-4],"categories":[],"categories_nodes":[],"categories_segments":[],"categories_sizes":[],"default_left":[0,0,0,0,0,0,0,0,0,0,0,0,0,0,0,0,0,0,0,0,0,0,0],"id":25,"left_children":[1,3,5,7,9,11,13,15,-1,17,-1,-1,19,21,-1,-1,-1,-1,-1,-1,-1,-1,-1],"loss_changes":[8.699294E0,6.4695506E0,7.108406E0,5.6615615E0,7.2954516E0,1.9985294E0,4.519566E-1,3.7324538E0,0E0,5.421255E0,0E0,0E0,3.0541134E-1,1.19343095E-1,0E0,0E0,0E0,0E0,0E0,0E0,0E0,0E0,0E0],"parents":[2147483647,0,0,1,1,2,2,3,3,4,4,5,5,6,6,7,7,9,9,12,12,13,13],"right_children":[2,4,6,8,10,12,14,16,-1,18,-1,-1,20,22,-1,-1,-1,-1,-1,-1,-1,-1,-1],"split_conditions":[-6.61E0,5.21E1,1.03E1,2.4E0,-6.67E0,4.3E0,-6.44E0,-6.9E0,4.9952224E-2,-3.6E0,5.725629E-2,9.206412E-2,4.55E1,-6.51E0,1.4598438E-2,4.3108888E-2,-1.20216105E-2,1.3088592E-2,-4.3050656E-3,1.8019173E-2,4.7364533E-2,-1.3851684E-2,-1.8879189E-4],"split_indices":[1,3,2,6,1,2,1,5,0,5,0,0,3,1,0,0,0,0,0,0,0,0,0],"split_type":[0,0,0,0,0,0,0,0,0,0,0,0,0,0,0,0,0,0,0,0,0,0,0],"sum_hessian":[9.64E2,9.09E2,5.5E1,4.1E2,4.99E2,2.8E1,2.7E1,4.01E2,9E0,4.84E2,1.5E1,8E0,2E1,1.8E1,9E0,7E0,3.94E2,1.84E2,3E2,6E0,1.4E1,7E0,1.1E1],"tree_param":{"num_deleted":"0","num_feature":"8","num_nodes":"23","size_leaf_vector":"1"}},{"base_weights":[-1.0140994E-2,-2.582007E-1,1.3004276E-1,-3.6593863E-1,-1.3552348E-1,9.591664E-2,9.0847224E-1,-4.600725E-1,-2.588752E-1,-6.709939E-2,-6.3810885E-1,9.748075E-1,8.479903E-2,1.077814E0,-2.2502574E-1,-2.6614012E-2,-4.253494E-2,-3.202843E-2,-1.4050703E-2,-1.2618738E-2,1.3418294E-2,1.4607707E-5,-5.75276E-2,2.9227415E-2,1.05245635E-1,-2.031781E-2,8.769257E-3,1.12176225E-1,5.901465E-2,5.4358826E-3,-3.0293336E-2],"categories":[],"categories_nodes":[],"categories_segments":[],"categories_sizes":[],"default_left":[0,0,0,0,0,0,0,0,0,0,0,0,0,0,0,0,0,0,0,0,0,0,0,0,0,0,0,0,0,0,0],"id":26,"left_children":[1,3,5,7,9,11,13,15,17,19,21,23,25,27,29,-1,-1,-1,-1,-1,-1,-1,-1,-1,-1,-1,-1,-1,-1,-1,-1],"loss_changes":[3.27339E1,4.394039E0,1.5777861E1,1.6230965E0,5.423282E0,5.449338E0,5.1265316E0,5.942898E-1,8.9668465E-1,3.0690126E0,1.0541854E0,8.050556E-1,4.8139095E0,1.1789913E0,2.3685305E-1,0E0,0E0,0E0,0E0,0E0,0E0,0E0,0E0,0E0,0E0,0E0,0E0,0E0,0E0,0E0,0E0],"parents":[2147483647,0,0,1,1,2,2,3,3,4,4,5,5,6,6,7,7,8,8,9,9,10,10,11,11,12,12,13,13,14,14],"right_children":[2,4,6,8,10,12,14,16,18,20,22,24,26,28,30,-1,-1,-1,-1,-1,-1,-1,-1,-1,-1,-1,-1,-1,-1,-1,-1],"split_conditions":[5.15E0,5.03E0,5.94E0,1.7E0,1E0,9.314E2,2.1E0,-5.4E0,4.89E0,9.39E2,5.09E0,5.36E0,2.22E1,1.6E0,2.65E1,-2.6614012E-2,-4.253494E-2,-3.202843E-2,-1.4050703E-2,-1.2618738E-2,1.3418294E-2,1.4607707E-5,-5.75276E-2,2.9227415E-2,1.05245635E-1,-2.031781E-2,8.769257E-3,1.12176225E-1,5.901465E-2,5.4358826E-3,-3.0293336E-2],"split_indices":[0,0,0,6,7,4,6,5,0,4,0,0,3,6,3,0,0,0,0,0,0,0,0,0,0,0,0,0,0,0,0],"split_type":[0,0,0,0,0,0,0,0,0,0,0,0,0,0,0,0,0,0,0,0,0,0,0,0,0,0,0,0,0,0,0],"sum_hessian":[9.39E2,3.39E2,6E2,1.79E2,1.6E2,5.76E2,2.4E1,9.3E1,8.6E1,1.42E2,1.8E1,6E0,5.7E2,2.1E1,3E0,3.6E1,5.7E1,3E1,5.6E1,1.03E2,3.9E1,2E0,1.6E1,3E0,3E0,3.8E1,5.32E2,9E0,1.2E1,1E0,2E0],"tree_param":{"num_deleted":"0","num_feature":"8","num_nodes":"31","size_leaf_vector":"1"}},{"base_weights":[-2.4009927E-3,-1.3421872E-1,2.35896E-1,-1.7664476E-1,1.2961528E-1,1.9023107E-1,9.969247E-1,-2.9346588E-1,-1.02075815E-1,-3.7113518E-2,2.845707E-1,1.23098105E-1,1.7676611E-1,1.1252638E0,-2.9305266E-2,-3.954926E-2,-2.0591669E-2,4.5770176E-2,-8.997902E-3,-4.9319953E-2,9.152299E-3,5.4811515E-2,-2.452916E-3,1.1045581E-2,5.17861E-2,3.8955055E-2,1.0212181E-1,5.218445E-3,-1.2735077E-2],"categories":[],"categories_nodes":[],"categories_segments":[],"categories_sizes":[],"default_left":[0,0,0,0,0,0,0,0,0,0,0,0,0,0,0,0,0,0,0,0,0,0,0,0,0,0,0,0,0],"id":27,"left_children":[1,3,5,7,9,11,13,15,17,19,21,-1,23,25,27,-1,-1,-1,-1,-1,-1,-1,-1,-1,-1,-1,-1,-1,-1],"loss_changes":[3.0176792E1,6.956335E0,1.1576933E1,4.582285E0,2.2571628E0,5.4394646E0,2.6449757E0,1.2975941E0,2.3177743E0,3.8077917E0,5.7687664E0,0E0,5.695369E0,8.4345627E-1,5.661559E-2,0E0,0E0,0E0,0E0,0E0,0E0,0E0,0E0,0E0,0E0,0E0,0E0,0E0,0E0],"parents":[2147483647,0,0,1,1,2,2,3,3,4,4,5,5,6,6,7,7,8,8,9,9,10,10,12,12,13,13,14,14],"right_children":[2,4,6,8,10,12,14,16,18,20,22,-1,24,26,28,-1,-1,-1,-1,-1,-1,-1,-1,-1,-1,-1,-1,-1,-1],"split_conditions":[5.39E0,7.75E1,5.96E0,5.07E0,5.15E0,9.314E2,2.1E0,4.84E0,-6.9E0,-6.81E0,5.25E0,1.23098105E-1,2.1E0,5.97E0,6.05E0,-3.954926E-2,-2.0591669E-2,4.5770176E-2,-8.997902E-3,-4.9319953E-2,9.152299E-3,5.4811515E-2,-2.452916E-3,1.1045581E-2,5.17861E-2,3.8955055E-2,1.0212181E-1,5.218445E-3,-1.2735077E-2],"split_indices":[0,3,0,0,0,4,6,0,5,1,0,0,6,0,0,0,0,0,0,0,0,0,0,0,0,0,0,0,0],"split_type":[0,0,0,0,0,0,0,0,0,0,0,0,0,0,0,0,0,0,0,0,0,0,0,0,0,0,0,0,0],"sum_hessian":[9.59E2,6.18E2,3.41E2,5.33E2,8.5E1,3.23E2,1.8E1,2.06E2,3.27E2,4.1E1,4.4E1,2E0,3.21E2,1.6E1,2E0,2.9E1,1.77E2,4E0,3.23E2,8E0,3.3E1,1.9E1,2.5E1,2.98E2,2.3E1,4E0,1.2E1,1E0,1E0],"tree_param":{"num_deleted":"0","num_feature":"8","num_nodes":"29","size_leaf_vector":"1"}},{"base_weights":[1.16520915E-2,-1.8029697E-1,1.2396363E-1,-4.9336198E-1,-1.4165299E-1,7.5722605E-2,3.6288345E-1,-6.092288E-2,-4.2453676E-1,-2.3505841E-1,-5.923706E-2,-6.011873E-1,9.2731364E-2,3.108919E-1,9.981986E-2,-1.317311E-2,-3.5383508E-2,3.2213703E-2,-1.9813541E-2,1.01489216E-1,-6.714091E-3,1.5563293E-2,-5.6024212E-2,8.4874816E-2,6.2396238E-3,1.9903524E-2,7.478754E-2],"categories":[],"categories_nodes":[],"categories_segments":[],"categories_sizes":[],"default_left":[0,0,0,0,0,0,0,0,0,0,0,0,0,0,0,0,0,0,0,0,0,0,0,0,0,0,0],"id":28,"left_children":[1,3,5,7,9,11,13,-1,15,17,19,21,23,25,-1,-1,-1,-1,-1,-1,-1,-1,-1,-1,-1,-1,-1],"loss_changes":[2.0044188E1,4.0162525E0,6.694269E0,2.4100685E-1,2.3199606E0,5.646468E0,3.9647617E0,0E0,1.4140606E-2,1.2342811E0,5.39727E0,1.1332417E0,6.6374984E0,3.2911844E0,0E0,0E0,0E0,0E0,0E0,0E0,0E0,0E0,0E0,0E0,0E0,0E0,0E0],"parents":[2147483647,0,0,1,1,2,2,3,3,4,4,5,5,6,6,8,8,9,9,10,10,11,11,12,12,13,13],"right_children":[2,4,6,8,10,12,14,-1,16,18,20,22,24,26,-1,-1,-1,-1,-1,-1,-1,-1,-1,-1,-1,-1,-1],"split_conditions":[5.15E0,4.84E0,5.75E0,-6.96E0,5.21E1,-1.089E1,-6.44E0,-6.092288E-2,4.72E0,-6.9E0,4.86E0,5.17E0,-5.3E0,7.69E1,9.981986E-2,-1.317311E-2,-3.5383508E-2,3.2213703E-2,-1.9813541E-2,1.01489216E-1,-6.714091E-3,1.5563293E-2,-5.6024212E-2,8.4874816E-2,6.2396238E-3,1.9903524E-2,7.478754E-2],"split_indices":[0,0,0,1,3,1,1,0,0,5,0,0,2,3,0,0,0,0,0,0,0,0,0,0,0,0,0],"split_type":[0,0,0,0,0,0,0,0,0,0,0,0,0,0,0,0,0,0,0,0,0,0,0,0,0,0,0],"sum_hessian":[9.28E2,3.42E2,5.86E2,3.6E1,3.06E2,4.89E2,9.7E1,5E0,3.1E1,1.42E2,1.64E2,1.1E1,4.78E2,9.3E1,4E0,3E0,2.8E1,2E0,1.4E2,2E0,1.62E2,1E0,1E1,6E0,4.72E2,8.6E1,7E0],"tree_param":{"num_deleted":"0","num_feature":"8","num_nodes":"27","size_leaf_vector":"1"}},{"base_weights":[-4.731575E-3,-1.2761348E-1,1.8987879E-1,-2.4799772E-1,-4.6821654E-2,9.07426E-2,3.3364353E-1,-1.31481895E-2,-2.9034004E-1,-1.0089932E-1,1.1666483E-1,4.3464628E-1,3.7528206E-2,-2.987887E-2,4.0103158E-1,-1.3436548E-2,3.808236E-2,-1.119226E-2,-3.146546E-2,1.03725195E-2,-1.2361021E-2,4.5753373E-3,1.3836117E-1,4.479723E-2,-9.792358E-3,-1.4273549E-2,1.147802E-2,2.2777746E-2,-8.962808E-3,2.727845E-2,6.799524E-2],"categories":[],"categories_nodes":[],"categories_segments":[],"categories_sizes":[],"default_left":[0,0,0,0,0,0,0,0,0,0,0,0,0,0,0,0,0,0,0,0,0,0,0,0,0,0,0,0,0,0,0],"id":29,"left_children":[1,3,5,7,9,11,13,15,17,19,21,23,25,27,29,-1,-1,-1,-1,-1,-1,-1,-1,-1,-1,-1,-1,-1,-1,-1,-1],"loss_changes":[2.2688564E1,5.6194744E0,5.157875E0,2.2828045E0,3.104533E0,3.9443083E0,3.6991615E0,2.8511167E0,2.9435158E0,3.2857947E0,8.067558E0,2.1367621E0,4.3919945E0,6.34944E-1,2.987728E0,0E0,0E0,0E0,0E0,0E0,0E0,0E0,0E0,0E0,0E0,0E0,0E0,0E0,0E0,0E0,0E0],"parents":[2147483647,0,0,1,1,2,2,3,3,4,4,5,5,6,6,7,7,8,8,9,9,10,10,11,11,12,12,13,13,14,14],"right_children":[2,4,6,8,10,12,14,16,18,20,22,24,26,28,30,-1,-1,-1,-1,-1,-1,-1,-1,-1,-1,-1,-1,-1,-1,-1,-1],"split_conditions":[5.37E0,5.08E0,5.66E0,9.341E2,9.39E2,-7.28E0,-7.35E0,5.01E0,-3.5E0,9.341E2,5.36E0,5.59E0,-6.81E0,5.72E0,5.96E0,-1.3436548E-2,3.808236E-2,-1.119226E-2,-3.146546E-2,1.03725195E-2,-1.2361021E-2,4.5753373E-3,1.3836117E-1,4.479723E-2,-9.792358E-3,-1.4273549E-2,1.147802E-2,2.2777746E-2,-8.962808E-3,2.727845E-2,6.799524E-2],"split_indices":[0,0,0,4,4,1,1,0,5,4,0,0,1,0,0,0,0,0,0,0,0,0,0,0,0,0,0,0,0,0,0],"split_type":[0,0,0,0,0,0,0,0,0,0,0,0,0,0,0,0,0,0,0,0,0,0,0,0,0,0,0,0,0,0,0],"sum_hessian":[9.47E2,5.81E2,3.66E2,2.32E2,3.49E2,2.18E2,1.48E2,3.6E1,1.96E2,2.63E2,8.6E1,2.8E1,1.9E2,2.3E1,1.25E2,2.8E1,8E0,8.1E1,1.15E2,4.9E1,2.14E2,8.4E1,2E0,2.3E1,5E0,6.2E1,1.28E2,4E0,1.9E1,1.12E2,1.3E1],"tree_param":{"num_deleted":"0","num_feature":"8","num_nodes":"31","size_leaf_vector":"1"}},{"base_weights":[3.6307173E-3,-9.6053325E-2,1.8676822E-1,-1.9798684E-1,-1.2865067E-2,1.548484E-1,7.744986E-1,-3.899371E-1,-1.5781595E-1,-9.364404E-2,1.2620384E-1,1.2078848E-1,3.7665763E-1,9.622145E-1,-3.1113138E-2,-6.281978E-2,-2.1841202E-2,3.498783E-2,-1.3649136E-2,7.2161057E-3,-1.440456E-2,1.4410443E-2,-2.2255668E-2,-2.048379E-3,1.670712E-2,-2.0335652E-2,3.3364415E-2,2.9988905E-2,8.555849E-2],"categories":[],"categories_nodes":[],"categories_segments":[],"categories_sizes":[],"default_left":[0,0,0,0,0,0,0,0,0,0,0,0,0,0,0,0,0,0,0,0,0,0,0,0,0,0,0,0,0],"id":30,"left_children":[1,3,5,7,9,11,13,15,17,19,21,23,25,27,-1,-1,-1,-1,-1,-1,-1,-1,-1,-1,-1,-1,-1,-1,-1],"loss_changes":[1.7497894E1,5.233764E0,6.1281004E0,2.0272932E0,3.8617702E0,2.3374066E0,4.1441994E0,1.8521523E0,1.8151021E0,3.4885106E0,2.788106E0,3.6457605E0,1.1926665E0,3.997097E-1,0E0,0E0,0E0,0E0,0E0,0E0,0E0,0E0,0E0,0E0,0E0,0E0,0E0,0E0,0E0],"parents":[2147483647,0,0,1,1,2,2,3,3,4,4,5,5,6,6,7,7,8,8,9,9,10,10,11,11,12,12,13,13],"right_children":[2,4,6,8,10,12,14,16,18,20,22,24,26,28,-1,-1,-1,-1,-1,-1,-1,-1,-1,-1,-1,-1,-1,-1,-1],"split_conditions":[5.39E0,5.21E1,5.96E0,4.88E0,3.4E0,2E0,2.1E0,2E0,4.9E0,-4.5E0,1.06E1,5.21E1,2.11E1,5.97E0,-3.1113138E-2,-6.281978E-2,-2.1841202E-2,3.498783E-2,-1.3649136E-2,7.2161057E-3,-1.440456E-2,1.4410443E-2,-2.2255668E-2,-2.048379E-3,1.670712E-2,-2.0335652E-2,3.3364415E-2,2.9988905E-2,8.555849E-2],"split_indices":[0,3,0,0,2,6,6,2,0,5,2,3,3,0,0,0,0,0,0,0,0,0,0,0,0,0,0,0,0],"split_type":[0,0,0,0,0,0,0,0,0,0,0,0,0,0,0,0,0,0,0,0,0,0,0,0,0,0,0,0,0],"sum_hessian":[9.56E2,6.19E2,3.37E2,2.77E2,3.42E2,3.21E2,1.6E1,4.6E1,2.31E2,2.17E2,1.25E2,2.8E2,4.1E1,1.4E1,2E0,9E0,3.7E1,4E0,2.27E2,6.9E1,1.48E2,1.11E2,1.4E1,1.05E2,1.75E2,2E0,3.9E1,3E0,1.1E1],"tree_param":{"num_deleted":"0","num_feature":"8","num_nodes":"29","size_leaf_vector":"1"}},{"base_weights":[-1.4618476E-4,-8.403695E-2,2.4195158E-1,-2.1492043E-1,-3.766953E-2,1.9698033E-1,6.670203E-1,-7.085431E-1,-1.9109975E-1,2.9031837E-3,-2.1942535E-1,1.5095451E-1,6.561973E-1,8.083484E-1,-4.0902667E-2,-7.154313E-2,1.9667145E-2,-2.1743802E-2,-6.5471847E-3,-2.6247639E-3,2.449945E-2,-3.9399996E-2,-8.002039E-3,3.954815E-2,7.844056E-3,2.8229829E-2,8.436598E-2,-2.5683379E-2,7.086961E-2],"categories":[],"categories_nodes":[],"categories_segments":[],"categories_sizes":[],"default_left":[0,0,0,0,0,0,0,0,0,0,0,0,0,0,0,0,0,0,0,0,0,0,0,0,0,0,0,0,0],"id":31,"left_children":[1,3,5,7,9,11,13,15,17,19,21,23,25,27,-1,-1,-1,-1,-1,-1,-1,-1,-1,-1,-1,-1,-1,-1,-1],"loss_changes":[1.9501917E1,4.299718E0,4.503831E0,1.9617014E0,3.923308E0,4.5757923E0,4.2731333E0,1.7028775E0,1.5206418E0,4.7281218E0,3.0541768E0,3.6346965E0,1.9038763E0,2.1794825E0,0E0,0E0,0E0,0E0,0E0,0E0,0E0,0E0,0E0,0E0,0E0,0E0,0E0,0E0,0E0],"parents":[2147483647,0,0,1,1,2,2,3,3,4,4,5,5,6,6,7,7,8,8,9,9,10,10,11,11,12,12,13,13],"right_children":[2,4,6,8,10,12,14,16,18,20,22,24,26,28,-1,-1,-1,-1,-1,-1,-1,-1,-1,-1,-1,-1,-1,-1,-1],"split_conditions":[5.54E0,5.03E0,5.94E0,2.11E1,1E0,7.87E1,7.49E1,5E0,1.7E0,7.75E1,5.19E0,5.58E0,5.73E0,-9.56E0,-4.0902667E-2,-7.154313E-2,1.9667145E-2,-2.1743802E-2,-6.5471847E-3,-2.6247639E-3,2.449945E-2,-3.9399996E-2,-8.002039E-3,3.954815E-2,7.844056E-3,2.8229829E-2,8.436598E-2,-2.5683379E-2,7.086961E-2],"split_indices":[0,0,0,3,7,3,3,0,6,3,0,0,0,1,0,0,0,0,0,0,0,0,0,0,0,0,0,0,0],"split_type":[0,0,0,0,0,0,0,0,0,0,0,0,0,0,0,0,0,0,0,0,0,0,0,0,0,0,0,0,0],"sum_hessian":[9.59E2,7.13E2,2.46E2,1.85E2,5.28E2,2.24E2,2.2E1,7E0,1.78E2,4.32E2,9.6E1,2.05E2,1.9E1,2E1,2E0,6E0,1E0,1.01E2,7.7E1,3.87E2,4.5E1,2.8E1,6.8E1,2.6E1,1.79E2,1.2E1,7E0,1E0,1.9E1],"tree_param":{"num_deleted":"0","num_feature":"8","num_nodes":"29","size_leaf_vector":"1"}},{"base_weights":[-2.9118828E-4,-8.812197E-2,1.57925E-1,-1.1130786E-1,2.3392865E-1,1.1942441E-1,6.114927E-1,-2.072772E-1,-4.9203057E-2,3.680951E-1,-1.5635216E-1,7.202004E-1,9.482594E-2,-2.7678182E-2,7.0986426E-1,-5.450355E-2,-1.3742927E-2,-1.4126106E-2,3.9053555E-3,8.482018E-3,1.3517228E-1,-1.9777391E-2,2.609201E-2,1.0574362E-1,-2.9311316E-2,2.7269797E-2,5.2042846E-3,6.884848E-2,3.222121E-2],"categories":[],"categories_nodes":[],"categories_segments":[],"categories_sizes":[],"default_left":[0,0,0,0,0,0,0,0,0,0,0,0,0,0,0,0,0,0,0,0,0,0,0,0,0,0,0,0,0],"id":32,"left_children":[1,3,5,7,9,11,13,15,17,19,21,23,25,-1,27,-1,-1,-1,-1,-1,-1,-1,-1,-1,-1,-1,-1,-1,-1],"loss_changes":[1.3166687E1,4.5686626E0,5.7562485E0,3.3614426E0,2.225593E0,4.4757705E0,2.7308693E0,3.5492182E0,4.366221E0,1.0377848E1,5.5500627E-1,8.424091E0,2.1495006E0,0E0,6.380644E-1,0E0,0E0,0E0,0E0,0E0,0E0,0E0,0E0,0E0,0E0,0E0,0E0,0E0,0E0],"parents":[2147483647,0,0,1,1,2,2,3,3,4,4,5,5,6,6,7,7,8,8,9,9,10,10,11,11,12,12,14,14],"right_children":[2,4,6,8,10,12,14,16,18,20,22,24,26,-1,28,-1,-1,-1,-1,-1,-1,-1,-1,-1,-1,-1,-1,-1,-1],"split_conditions":[5.39E0,7.87E1,5.93E0,2.9E0,5.26E0,9.325E2,9.325E2,4.91E0,5.09E0,5.19E0,5.38E0,1E0,-5.4E0,-2.7678182E-2,-2.6E0,-5.450355E-2,-1.3742927E-2,-1.4126106E-2,3.9053555E-3,8.482018E-3,1.3517228E-1,-1.9777391E-2,2.609201E-2,1.0574362E-1,-2.9311316E-2,2.7269797E-2,5.2042846E-3,6.884848E-2,3.222121E-2],"split_indices":[0,3,0,2,0,4,4,0,0,0,0,7,5,0,5,0,0,0,0,0,0,0,0,0,0,0,0,0,0],"split_type":[0,0,0,0,0,0,0,0,0,0,0,0,0,0,0,0,0,0,0,0,0,0,0,0,0,0,0,0,0],"sum_hessian":[9.46E2,6.09E2,3.37E2,5.69E2,4E1,3.12E2,2.5E1,2.22E2,3.47E2,3E1,1E1,1.1E1,3.01E2,2E0,2.3E1,1.4E1,2.08E2,1.51E2,1.96E2,2.6E1,4E0,9E0,1E0,7E0,4E0,3.1E1,2.7E2,1.4E1,9E0],"tree_param":{"num_deleted":"0","num_feature":"8","num_nodes":"29","size_leaf_vector":"1"}},{"base_weights":[7.945823E-3,-9.4482034E-2,1.5764171E-1,-1.3044225E-1,1.2387488E-1,2.0957828E-1,-7.470939E-2,-3.2249963E-1,-1.048053E-1,-9.071607E-2,3.086608E-1,5.284377E-1,1.5932548E-1,-4.102302E-1,5.142504E-2,-3.327317E-2,4.3306374E-3,1.5676042E-2,-9.41713E-3,-4.3153405E-2,5.717812E-4,4.3965768E-2,1.1098895E-3,-8.349317E-3,6.47572E-2,6.0661957E-3,2.3035092E-2,-3.7859615E-2,-1.1887054E-3,3.8175136E-2,-2.611868E-3],"categories":[],"categories_nodes":[],"categories_segments":[],"categories_sizes":[],"default_left":[0,0,0,0,0,0,0,0,0,0,0,0,0,0,0,0,0,0,0,0,0,0,0,0,0,0,0,0,0,0,0],"id":33,"left_children":[1,3,5,7,9,11,13,15,17,19,21,23,25,27,29,-1,-1,-1,-1,-1,-1,-1,-1,-1,-1,-1,-1,-1,-1,-1,-1],"loss_changes":[1.4786918E1,4.5082517E0,4.759612E0,2.3459635E0,3.2617197E0,4.990597E0,3.1040688E0,2.0641322E0,1.7079716E0,1.7257166E0,3.0608034E0,7.8019075E0,2.9379559E0,4.424441E-1,1.957192E0,0E0,0E0,0E0,0E0,0E0,0E0,0E0,0E0,0E0,0E0,0E0,0E0,0E0,0E0,0E0,0E0],"parents":[2147483647,0,0,1,1,2,2,3,3,4,4,5,5,6,6,7,7,8,8,9,9,10,10,11,11,12,12,13,13,14,14],"right_children":[2,4,6,8,10,12,14,16,18,20,22,24,26,28,30,-1,-1,-1,-1,-1,-1,-1,-1,-1,-1,-1,-1,-1,-1,-1,-1],"split_conditions":[5.36E0,7.75E1,1E0,4.89E0,5.14E0,9.341E2,9.365E2,6.82E1,-2.7E0,-6.81E0,5.25E0,5.53E0,5.71E0,5.66E0,5.42E0,-3.327317E-2,4.3306374E-3,1.5676042E-2,-9.41713E-3,-4.3153405E-2,5.717812E-4,4.3965768E-2,1.1098895E-3,-8.349317E-3,6.47572E-2,6.0661957E-3,2.3035092E-2,-3.7859615E-2,-1.1887054E-3,3.8175136E-2,-2.611868E-3],"split_indices":[0,3,7,0,0,4,4,3,2,1,0,0,0,0,0,0,0,0,0,0,0,0,0,0,0,0,0,0,0,0,0],"split_type":[0,0,0,0,0,0,0,0,0,0,0,0,0,0,0,0,0,0,0,0,0,0,0,0,0,0,0,0,0,0,0],"sum_hessian":[9.62E2,5.71E2,3.91E2,4.91E2,8E1,3.2E2,7.1E1,5.6E1,4.35E2,3.7E1,4.3E1,4.2E1,2.78E2,1.9E1,5.2E1,4.5E1,1.1E1,1.7E1,4.18E2,6E0,3.1E1,2.3E1,2E1,1.3E1,2.9E1,1.7E2,1.08E2,1.6E1,3E0,8E0,4.4E1],"tree_param":{"num_deleted":"0","num_feature":"8","num_nodes":"31","size_leaf_vector":"1"}},{"base_weights":[-5.588275E-3,-8.501693E-2,1.8476203E-1,-5.503855E-1,-7.204473E-2,7.465989E-1,1.6099377E-1,-2.9093322E-1,-5.750832E-2,-4.7918737E-1,-6.1030023E-2,1.5801743E-1,2.4299265E-1,1.32722E-1,6.65379E-1,-5.154076E-2,2.294316E-2,-1.5116254E-2,-4.8898276E-2,-1.3148515E-2,-2.4807998E-3,3.8216315E-2,-2.8186502E-2,2.3698628E-2,5.980268E-3,7.192202E-2,2.312119E-2],"categories":[],"categories_nodes":[],"categories_segments":[],"categories_sizes":[],"default_left":[0,0,0,0,0,0,0,0,0,0,0,0,0,0,0,0,0,0,0,0,0,0,0,0,0,0,0],"id":34,"left_children":[1,3,5,7,9,11,13,15,-1,17,19,-1,21,23,25,-1,-1,-1,-1,-1,-1,-1,-1,-1,-1,-1,-1],"loss_changes":[1.4489993E1,3.985055E0,3.5548382E0,4.7665453E-1,2.8765402E0,6.104358E0,3.7105603E0,2.0576355E0,0E0,4.559765E-1,1.9729652E0,0E0,1.4384106E0,2.3956895E0,8.5246944E-1,0E0,0E0,0E0,0E0,0E0,0E0,0E0,0E0,0E0,0E0,0E0,0E0],"parents":[2147483647,0,0,1,1,2,2,3,3,4,4,5,5,6,6,7,7,9,9,10,10,12,12,13,13,14,14],"right_children":[2,4,6,8,10,12,14,16,-1,18,20,-1,22,24,26,-1,-1,-1,-1,-1,-1,-1,-1,-1,-1,-1,-1],"split_conditions":[5.48E0,-1.089E1,9.325E2,5E0,1E0,5.62E0,5.97E0,4.88E0,-5.750832E-2,4.97E0,5E0,1.5801743E-1,5.89E0,1.7E0,1.6E0,-5.154076E-2,2.294316E-2,-1.5116254E-2,-4.8898276E-2,-1.3148515E-2,-2.4807998E-3,3.8216315E-2,-2.8186502E-2,2.3698628E-2,5.980268E-3,7.192202E-2,2.312119E-2],"split_indices":[0,1,4,0,6,0,0,0,0,0,0,0,0,2,6,0,0,0,0,0,0,0,0,0,0,0,0],"split_type":[0,0,0,0,0,0,0,0,0,0,0,0,0,0,0,0,0,0,0,0,0,0,0,0,0,0,0],"sum_hessian":[9.57E2,6.76E2,2.81E2,1.7E1,6.59E2,1E1,2.71E2,8E0,9E0,1.6E1,6.43E2,2E0,8E0,2.58E2,1.3E1,5E0,3E0,6E0,1E1,1.43E2,5E2,6E0,2E0,6.6E1,1.92E2,7E0,6E0],"tree_param":{"num_deleted":"0","num_feature":"8","num_nodes":"27","size_leaf_vector":"1"}},{"base_weights":[1.6735943E-3,-4.1184943E-2,2.7760983E-1,-1.5727858E-1,2.9819137E-3,2.3876022E-1,8.34773E-2,-1.8592764E-1,9.936835E-2,3.0627284E-2,-1.0571761E-1,1.1502262E0,2.0688322E-1,-1.725663E-2,-2.859007E-3,-7.6823863E-3,4.8152883E-2,-2.8915303E-2,3.3058785E-3,-6.918935E-2,-6.3313004E-3,-1.13773495E-2,1.3294236E-1,1.19846435E-2,5.435135E-2],"categories":[],"categories_nodes":[],"categories_segments":[],"categories_sizes":[],"default_left":[0,0,0,0,0,0,0,0,0,0,0,0,0,0,0,0,0,0,0,0,0,0,0,0,0],"id":35,"left_children":[1,3,5,7,9,11,-1,13,15,17,19,21,23,-1,-1,-1,-1,-1,-1,-1,-1,-1,-1,-1,-1],"loss_changes":[1.1695732E1,4.394777E0,3.5798178E0,1.7623658E0,1.8558477E0,3.3453393E0,0E0,9.198313E-1,2.4650917E0,2.0587776E0,2.3590794E0,3.0329032E0,3.186367E0,0E0,0E0,0E0,0E0,0E0,0E0,0E0,0E0,0E0,0E0,0E0,0E0],"parents":[2147483647,0,0,1,1,2,2,3,3,4,4,5,5,7,7,8,8,9,9,10,10,11,11,12,12],"right_children":[2,4,6,8,10,12,-1,14,16,18,20,22,24,-1,-1,-1,-1,-1,-1,-1,-1,-1,-1,-1,-1],"split_conditions":[5.71E0,5.08E0,-6.44E0,7.75E1,1E0,5.72E0,8.34773E-2,-6.64E0,5E0,-1.089E1,-6.99E0,-1.119E1,7.69E1,-1.725663E-2,-2.859007E-3,-7.6823863E-3,4.8152883E-2,-2.8915303E-2,3.3058785E-3,-6.918935E-2,-6.3313004E-3,-1.13773495E-2,1.3294236E-1,1.19846435E-2,5.435135E-2],"split_indices":[0,0,1,3,7,0,0,1,0,1,1,1,3,0,0,0,0,0,0,0,0,0,0,0,0],"split_type":[0,0,0,0,0,0,0,0,0,0,0,0,0,0,0,0,0,0,0,0,0,0,0,0,0],"sum_hessian":[9.85E2,8.53E2,1.32E2,2.35E2,6.18E2,1.27E2,5E0,2.12E2,2.3E1,4.94E2,1.24E2,3E0,1.24E2,1.76E2,3.6E1,1.7E1,6E0,1.2E1,4.82E2,3E0,1.21E2,1E0,2E0,1.12E2,1.2E1],"tree_param":{"num_deleted":"0","num_feature":"8","num_nodes":"25","size_leaf_vector":"1"}},{"base_weights":[-2.7428302E-3,-8.753892E-2,1.4905295E-1,-1.3829759E-1,3.529548E-2,1.289807E-1,6.347893E-1,4.535672E-2,-1.4479929E-1,-5.1110383E-2,2.121329E-1,3.2246965E-1,8.569137E-2,5.690681E-2,8.735311E-3,-1.2372669E-2,1.871345E-2,1.1096781E-3,-1.6974056E-2,8.704015E-3,4.2348757E-2,5.063935E-2,9.441937E-3,-2.1189137E-3,2.0327244E-2],"categories":[],"categories_nodes":[],"categories_segments":[],"categories_sizes":[],"default_left":[0,0,0,0,0,0,0,0,0,0,0,0,0,0,0,0,0,0,0,0,0,0,0,0,0],"id":36,"left_children":[1,3,5,7,9,11,13,-1,15,17,19,21,23,-1,-1,-1,-1,-1,-1,-1,-1,-1,-1,-1,-1],"loss_changes":[1.2183514E1,3.8060064E0,3.1469364E0,2.0161743E0,2.7467468E0,2.6705055E0,3.632965E-1,0E0,1.626318E0,1.2787229E0,1.8126023E0,3.5957966E0,5.1110744E0,0E0,0E0,0E0,0E0,0E0,0E0,0E0,0E0,0E0,0E0,0E0,0E0],"parents":[2147483647,0,0,1,1,2,2,3,3,4,4,5,5,6,6,8,8,9,9,10,10,11,11,12,12],"right_children":[2,4,6,8,10,12,14,-1,16,18,20,22,24,-1,-1,-1,-1,-1,-1,-1,-1,-1,-1,-1,-1],"split_conditions":[5.39E0,7.22E1,5.97E0,-6.9E0,-7E-1,-7.28E0,2E0,4.535672E-2,-6.44E0,5.24E0,-6.8E0,5.57E0,-1.5E0,5.690681E-2,8.735311E-3,-1.2372669E-2,1.871345E-2,1.1096781E-3,-1.6974056E-2,8.704015E-3,4.2348757E-2,5.063935E-2,9.441937E-3,-2.1189137E-3,2.0327244E-2],"split_indices":[0,3,0,5,5,1,6,0,1,0,1,0,5,0,0,0,0,0,0,0,0,0,0,0,0],"split_type":[0,0,0,0,0,0,0,0,0,0,0,0,0,0,0,0,0,0,0,0,0,0,0,0,0],"sum_hessian":[9.45E2,6.07E2,3.38E2,4.3E2,1.77E2,3.26E2,1.2E1,3E0,4.27E2,1.19E2,5.8E1,5.8E1,2.68E2,1E1,2E0,4.17E2,1E1,8.5E1,3.4E1,4.5E1,1.3E1,2.2E1,3.6E1,1.61E2,1.07E2],"tree_param":{"num_deleted":"0","num_feature":"8","num_nodes":"25","size_leaf_vector":"1"}},{"base_weights":[7.6973573E-3,-5.203207E-2,9.3366794E-2,-2.1613115E-1,-3.1176653E-2,1.2574801E-1,-2.5120282E-1,-1.5047167E-1,-4.4940057E-1,5.9470065E-2,-7.315245E-2,1.080224E-1,5.831099E-2,-2.7672337E-2,-1.4921896E-2,-6.610424E-3,-3.9383225E-2,-1.771819E-2,-8.815883E-2,-3.3347987E-2,7.5925305E-3,-4.227405E-3,-4.3393526E-2,1.9257065E-3,1.4416989E-2],"categories":[],"categories_nodes":[],"categories_segments":[],"categories_sizes":[],"default_left":[0,0,0,0,0,0,0,0,0,0,0,0,0,0,0,0,0,0,0,0,0,0,0,0,0],"id":37,"left_children":[1,3,5,7,9,11,13,15,17,19,21,23,-1,-1,-1,-1,-1,-1,-1,-1,-1,-1,-1,-1,-1],"loss_changes":[4.916182E0,1.9021615E0,4.426288E0,8.373203E-1,1.9196179E0,3.7077203E0,9.049487E-2,1.0844916E0,1.557199E0,2.6911516E0,3.1999218E0,2.1145635E0,0E0,0E0,0E0,0E0,0E0,0E0,0E0,0E0,0E0,0E0,0E0,0E0,0E0],"parents":[2147483647,0,0,1,1,2,2,3,3,4,4,5,5,6,6,7,7,8,8,9,9,10,10,11,11],"right_children":[2,4,6,8,10,12,14,16,18,20,22,24,-1,-1,-1,-1,-1,-1,-1,-1,-1,-1,-1,-1,-1],"split_conditions":[3.4E0,9.356E2,1.06E1,9.343E2,-3E-1,7.49E1,1.1E1,1E0,-1.161E1,-1.089E1,9.398E2,5.12E1,5.831099E-2,-2.7672337E-2,-1.4921896E-2,-6.610424E-3,-3.9383225E-2,-1.771819E-2,-8.815883E-2,-3.3347987E-2,7.5925305E-3,-4.227405E-3,-4.3393526E-2,1.9257065E-3,1.4416989E-2],"split_indices":[2,4,2,4,2,3,2,7,1,1,4,3,0,0,0,0,0,0,0,0,0,0,0,0,0],"split_type":[0,0,0,0,0,0,0,0,0,0,0,0,0,0,0,0,0,0,0,0,0,0,0,0,0],"sum_hessian":[9.58E2,5.64E2,3.94E2,6.2E1,5.02E2,3.61E2,3.3E1,5E1,1.2E1,1.58E2,3.44E2,3.52E2,9E0,1.1E1,2.2E1,4.3E1,7E0,1E1,2E0,1E1,1.48E2,3.31E2,1.3E1,1.64E2,1.88E2],"tree_param":{"num_deleted":"0","num_feature":"8","num_nodes":"25","size_leaf_vector":"1"}},{"base_weights":[-1.2351283E-2,-6.8756066E-2,1.5578833E-1,-1.3585243E-1,-2.25756E-2,4.8967066E-1,9.171251E-2,-1.6730803E-1,1.3900638E-1,-9.4374046E-2,7.8970924E-2,1.0505427E0,2.1855454E-1,-5.949104E-2,2.0070055E-1,-2.9322958E-2,-8.64698E-3,-8.1111E-4,3.9939966E-2,1.2803121E-2,-1.0959968E-2,5.180562E-2,1.7082026E-3,1.4614233E-1,5.6209397E-2,-0E0,6.6514656E-2,-1.2183408E-2,8.308013E-3,1.1230232E-2,6.1249822E-2],"categories":[],"categories_nodes":[],"categories_segments":[],"categories_sizes":[],"default_left":[0,0,0,0,0,0,0,0,0,0,0,0,0,0,0,0,0,0,0,0,0,0,0,0,0,0,0,0,0,0,0],"id":38,"left_children":[1,3,5,7,9,11,13,15,17,19,21,23,25,27,29,-1,-1,-1,-1,-1,-1,-1,-1,-1,-1,-1,-1,-1,-1,-1,-1],"loss_changes":[9.030662E0,2.193449E0,5.010067E0,2.5333834E0,3.107618E0,5.4218245E0,3.3548958E0,2.9923253E0,1.66583E0,2.7307465E0,5.6853533E0,1.704401E0,3.5492845E0,1.309117E0,3.82308E0,0E0,0E0,0E0,0E0,0E0,0E0,0E0,0E0,0E0,0E0,0E0,0E0,0E0,0E0,0E0,0E0],"parents":[2147483647,0,0,1,1,2,2,3,3,4,4,5,5,6,6,7,7,8,8,9,9,10,10,11,11,12,12,13,13,14,14],"right_children":[2,4,6,8,10,12,14,16,18,20,22,24,26,28,30,-1,-1,-1,-1,-1,-1,-1,-1,-1,-1,-1,-1,-1,-1,-1,-1],"split_conditions":[5.54E0,-6.81E0,9.341E2,2.1E0,5.21E0,5.64E0,9.371E2,9.359E2,5.39E0,9.341E2,5.24E0,4.3E0,-6.8E0,5.78E0,5.94E0,-2.9322958E-2,-8.64698E-3,-8.1111E-4,3.9939966E-2,1.2803121E-2,-1.0959968E-2,5.180562E-2,1.7082026E-3,1.4614233E-1,5.6209397E-2,-0E0,6.6514656E-2,-1.2183408E-2,8.308013E-3,1.1230232E-2,6.1249822E-2],"split_indices":[0,1,4,6,0,0,4,4,0,4,0,2,1,0,0,0,0,0,0,0,0,0,0,0,0,0,0,0,0,0,0],"split_type":[0,0,0,0,0,0,0,0,0,0,0,0,0,0,0,0,0,0,0,0,0,0,0,0,0,0,0,0,0,0,0],"sum_hessian":[9.51E2,7.13E2,2.38E2,2.89E2,4.24E2,3.7E1,2.01E2,2.6E2,2.9E1,2.49E2,1.75E2,1.1E1,2.6E1,8.4E1,1.17E2,5.8E1,2.02E2,2.1E1,8E0,3.5E1,2.14E2,1.5E1,1.6E2,2E0,9E0,2E1,6E0,5.4E1,3E1,1.07E2,1E1],"tree_param":{"num_deleted":"0","num_feature":"8","num_nodes":"31","size_leaf_vector":"1"}},{"base_weights":[-0E0,-3.420521E-2,2.347326E-1,-1.00613624E-1,2.4382532E-2,1.5459323E-1,5.77512E-1,-7.0022345E-2,-4.3960795E-1,-1.72645E-1,6.922588E-2,9.615045E-2,6.847583E-1,6.863952E-1,7.1806796E-2,4.062718E-2,-6.1592697E-3,7.906047E-3,-3.881347E-2,3.9267506E-2,-1.8154142E-2,4.8143165E-3,5.146671E-2,-1.0631359E-2,1.1513687E-2,6.725475E-2,4.747579E-3,3.9221123E-2,7.058073E-2,1.4096954E-2,-9.83255E-3],"categories":[],"categories_nodes":[],"categories_segments":[],"categories_sizes":[],"default_left":[0,0,0,0,0,0,0,0,0,0,0,0,0,0,0,0,0,0,0,0,0,0,0,0,0,0,0,0,0,0,0],"id":39,"left_children":[1,3,5,7,9,11,13,15,17,19,21,23,25,27,29,-1,-1,-1,-1,-1,-1,-1,-1,-1,-1,-1,-1,-1,-1,-1,-1],"loss_changes":[7.1974382E0,3.056509E0,2.9691038E0,3.734514E0,3.6771252E0,2.7685955E0,1.0312104E0,1.3611163E0,8.225193E-1,2.8581762E0,1.6568631E0,9.611983E-1,7.377715E-1,8.32634E-2,1.286337E-1,0E0,0E0,0E0,0E0,0E0,0E0,0E0,0E0,0E0,0E0,0E0,0E0,0E0,0E0,0E0,0E0],"parents":[2147483647,0,0,1,1,2,2,3,3,4,4,5,5,6,6,7,7,8,8,9,9,10,10,11,11,12,12,13,13,14,14],"right_children":[2,4,6,8,10,12,14,16,18,20,22,24,26,28,30,-1,-1,-1,-1,-1,-1,-1,-1,-1,-1,-1,-1,-1,-1,-1,-1],"split_conditions":[5.73E0,5.19E0,5.94E0,1E0,-1E0,7.69E1,5.69E1,-6.9E0,5.09E0,-5.3E0,7.87E1,-6E-1,5.83E0,4.55E1,6.03E0,4.062718E-2,-6.1592697E-3,7.906047E-3,-3.881347E-2,3.9267506E-2,-1.8154142E-2,4.8143165E-3,5.146671E-2,-1.0631359E-2,1.1513687E-2,6.725475E-2,4.747579E-3,3.9221123E-2,7.058073E-2,1.4096954E-2,-9.83255E-3],"split_indices":[0,0,0,7,2,3,3,5,0,2,3,2,0,3,0,0,0,0,0,0,0,0,0,0,0,0,0,0,0,0,0],"split_type":[0,0,0,0,0,0,0,0,0,0,0,0,0,0,0,0,0,0,0,0,0,0,0,0,0,0,0,0,0,0,0],"sum_hessian":[8.95E2,7.82E2,1.13E2,3.67E2,4.15E2,9.3E1,2E1,3.38E2,2.9E1,7.6E1,3.39E2,8.5E1,8E0,1.6E1,4E0,3E0,3.35E2,2E0,2.7E1,5E0,7.1E1,3.35E2,4E0,1.4E1,7.1E1,6E0,2E0,1E1,6E0,3E0,1E0],"tree_param":{"num_deleted":"0","num_feature":"8","num_nodes":"31","size_leaf_vector":"1"}},{"base_weights":[7.3895017E-3,-4.0894788E-2,7.961545E-2,5.0412513E-2,-8.940727E-2,2.087849E-1,-1.2391533E-2,-2.2328738E-2,1.07251085E-1,-3.5250638E-2,-7.313551E-2,1.6390643E-1,5.892432E-2,-4.762611E-2,3.2403758E-1,-1.374568E-2,1.3167797E-2,-1.7001794E-3,-1.1017179E-2,-8.934685E-3,1.4493315E-2,9.671578E-4,-2.2336371E-2,5.22423E-2,8.460335E-3],"categories":[],"categories_nodes":[],"categories_segments":[],"categories_sizes":[],"default_left":[0,0,0,0,0,0,0,0,0,0,0,0,0,0,0,0,0,0,0,0,0,0,0,0,0],"id":40,"left_children":[1,3,5,7,9,11,13,-1,15,-1,17,19,-1,21,23,-1,-1,-1,-1,-1,-1,-1,-1,-1,-1],"loss_changes":[3.313163E0,2.5243878E0,4.5502176E0,3.7024698E0,2.0423996E0,3.5552187E0,2.6312196E0,0E0,2.7321968E0,0E0,1.1773342E0,7.3117137E-1,0E0,2.837343E0,1.3631406E0,0E0,0E0,0E0,0E0,0E0,0E0,0E0,0E0,0E0,0E0],"parents":[2147483647,0,0,1,1,2,2,3,3,4,4,5,5,6,6,8,8,10,10,11,11,13,13,14,14],"right_children":[2,4,6,8,10,12,14,-1,16,-1,18,20,-1,22,24,-1,-1,-1,-1,-1,-1,-1,-1,-1,-1],"split_conditions":[3.4E0,1E0,6.5E0,1.3E0,1.4E0,-6.79E0,-6.44E0,-2.2328738E-2,9.356E2,-3.5250638E-2,1.6E0,2.12E1,5.892432E-2,1E1,-6.29E0,-1.374568E-2,1.3167797E-2,-1.7001794E-3,-1.1017179E-2,-8.934685E-3,1.4493315E-2,9.671578E-4,-2.2336371E-2,5.22423E-2,8.460335E-3],"split_indices":[2,2,2,6,2,1,1,0,4,0,6,3,0,2,1,0,0,0,0,0,0,0,0,0,0],"split_type":[0,0,0,0,0,0,0,0,0,0,0,0,0,0,0,0,0,0,0,0,0,0,0,0,0],"sum_hessian":[9.47E2,5.67E2,3.8E2,1.96E2,3.71E2,1.58E2,2.22E2,2.8E1,1.68E2,1.5E1,3.56E2,1.47E2,1.1E1,2.02E2,2E1,2.8E1,1.4E2,1.99E2,1.57E2,8E0,1.39E2,1.61E2,4.1E1,7E0,1.3E1],"tree_param":{"num_deleted":"0","num_feature":"8","num_nodes":"25","size_leaf_vector":"1"}},{"base_weights":[8.739809E-3,-6.1094586E-2,9.2558384E-2,-8.817461E-2,1.2997332E-1,2.6626687E-2,2.2585158E-1,-8.1579393E-4,-1.328316E-1,-2.9625338E-2,4.6294323E-1,-2.9313102E-1,6.2299766E-2,4.841955E-1,1.6291074E-1,-1.241146E-2,6.0315398E-3,1.1259194E-2,-1.2180414E-2,-1.1362521E-2,3.2974396E-2,1.4337032E-1,1.7875455E-2,-2.669354E-2,1.08872065E-2,2.9887091E-3,4.2355828E-2,6.6770494E-2,2.0564295E-2,5.1643047E-2,1.038464E-2],"categories":[],"categories_nodes":[],"categories_segments":[],"categories_sizes":[],"default_left":[0,0,0,0,0,0,0,0,0,0,0,0,0,0,0,0,0,0,0,0,0,0,0,0,0,0,0,0,0,0,0],"id":41,"left_children":[1,3,5,7,9,11,13,15,17,19,21,23,25,27,29,-1,-1,-1,-1,-1,-1,-1,-1,-1,-1,-1,-1,-1,-1,-1,-1],"loss_changes":[5.5461364E0,2.6771288E0,3.7564728E0,1.7537625E0,3.458106E0,3.3031342E0,2.1653833E0,1.8426739E0,1.6113863E0,2.2166405E0,6.0831437E0,5.6976295E-1,2.976127E0,1.825449E0,1.6919193E0,0E0,0E0,0E0,0E0,0E0,0E0,0E0,0E0,0E0,0E0,0E0,0E0,0E0,0E0,0E0,0E0],"parents":[2147483647,0,0,1,1,2,2,3,3,4,4,5,5,6,6,7,7,8,8,9,9,10,10,11,11,12,12,13,13,14,14],"right_children":[2,4,6,8,10,12,14,16,18,20,22,24,26,28,30,-1,-1,-1,-1,-1,-1,-1,-1,-1,-1,-1,-1,-1,-1,-1,-1],"split_conditions":[5.31E0,7.75E1,-1.5E0,-3.6E0,5.19E0,9.343E2,1.6E0,4.97E0,-2.7E0,2E0,5.2E0,6.02E0,5.94E0,9.341E2,5.32E0,-1.241146E-2,6.0315398E-3,1.1259194E-2,-1.2180414E-2,-1.1362521E-2,3.2974396E-2,1.4337032E-1,1.7875455E-2,-2.669354E-2,1.08872065E-2,2.9887091E-3,4.2355828E-2,6.6770494E-2,2.0564295E-2,5.1643047E-2,1.038464E-2],"split_indices":[0,3,5,5,0,4,6,0,2,2,0,0,0,4,0,0,0,0,0,0,0,0,0,0,0,0,0,0,0,0,0],"split_type":[0,0,0,0,0,0,0,0,0,0,0,0,0,0,0,0,0,0,0,0,0,0,0,0,0,0,0,0,0,0,0],"sum_hessian":[9.45E2,5.15E2,4.3E2,4.52E2,6.3E1,2.89E2,1.41E2,1.54E2,2.98E2,4.3E1,2E1,2.8E1,2.61E2,2.6E1,1.15E2,5.1E1,1.03E2,1.9E1,2.79E2,3.5E1,8E0,2E0,1.8E1,2.6E1,2E0,2.49E2,1.2E1,9E0,1.7E1,6E0,1.09E2],"tree_param":{"num_deleted":"0","num_feature":"8","num_nodes":"31","size_leaf_vector":"1"}},{"base_weights":[-2.5207184E-3,-1.0062555E-1,5.2463897E-2,3.6958206E-2,-1.0722317E-1,-1.01455934E-1,1.0973062E-1,-9.2996396E-2,-3.3817184E-1,-2.3916653E-1,-3.9174065E-2,9.58124E-2,6.435972E-1,-6.28677E-3,-3.3833962E-2,-3.7275124E-2,-3.0635116E-3,1.705717E-2,-2.3611793E-2,-7.037572E-3,1.5555459E-2,-2.5081423E-3,1.3755243E-2,1.2970337E-2,5.771717E-2],"categories":[],"categories_nodes":[],"categories_segments":[],"categories_sizes":[],"default_left":[0,0,0,0,0,0,0,0,0,0,0,0,0,0,0,0,0,0,0,0,0,0,0,0,0],"id":42,"left_children":[1,3,5,-1,7,9,11,13,15,17,19,21,23,-1,-1,-1,-1,-1,-1,-1,-1,-1,-1,-1,-1],"loss_changes":[5.1616106E0,1.2909319E0,5.406425E0,0E0,1.0458426E0,1.3865578E0,3.1858158E0,1.45243E0,6.597109E-1,1.3626823E0,1.328799E0,4.2499485E0,2.0706749E-1,0E0,0E0,0E0,0E0,0E0,0E0,0E0,0E0,0E0,0E0,0E0,0E0],"parents":[2147483647,0,0,1,1,2,2,4,4,5,5,6,6,7,7,8,8,9,9,10,10,11,11,12,12],"right_children":[2,4,6,-1,8,10,12,14,16,18,20,22,24,-1,-1,-1,-1,-1,-1,-1,-1,-1,-1,-1,-1],"split_conditions":[5.15E0,-6.9E0,-6.96E0,3.6958206E-2,1E0,9.357E2,5.97E0,5.14E0,5.14E0,5.25E0,5.21E1,5.72E1,-4.7E0,-6.28677E-3,-3.3833962E-2,-3.7275124E-2,-3.0635116E-3,1.705717E-2,-2.3611793E-2,-7.037572E-3,1.5555459E-2,-2.5081423E-3,1.3755243E-2,1.2970337E-2,5.771717E-2],"split_indices":[0,5,1,0,7,4,0,0,0,0,3,3,5,0,0,0,0,0,0,0,0,0,0,0,0],"split_type":[0,0,0,0,0,0,0,0,0,0,0,0,0,0,0,0,0,0,0,0,0,0,0,0,0],"sum_hessian":[9.54E2,3.43E2,6.11E2,3E0,3.4E2,1.65E2,4.46E2,3.22E2,1.8E1,5E1,1.15E2,4.36E2,1E1,3.1E2,1.2E1,1.2E1,6E0,5E0,4.5E1,9.6E1,1.9E1,1.63E2,2.73E2,2E0,8E0],"tree_param":{"num_deleted":"0","num_feature":"8","num_nodes":"25","size_leaf_vector":"1"}},{"base_weights":[5.8277915E-3,-2.655329E-2,1.49786705E-2,-3.3022694E-2,7.899301E-2,1.4077792E-1,-9.141334E-2,-9.7464584E-2,1.1690689E-1,7.2678826E-3,3.6155388E-2,-9.084539E-3,1.8210584E-2,-3.7830402E-3,-9.140293E-3,1.6662702E-2,3.4501469E-3],"categories":[],"categories_nodes":[],"categories_segments":[],"categories_sizes":[],"default_left":[0,0,0,0,0,0,0,0,0,0,0,0,0,0,0,0,0],"id":43,"left_children":[1,-1,3,5,7,9,11,13,15,-1,-1,-1,-1,-1,-1,-1,-1],"loss_changes":[2.9310338E0,0E0,2.8741052E0,5.4169927E0,2.6961052E0,1.9865196E0,2.8403437E0,3.8254797E-2,2.1974092E0,0E0,0E0,0E0,0E0,0E0,0E0,0E0,0E0],"parents":[2147483647,0,0,2,2,3,3,4,4,5,5,6,6,7,7,8,8],"right_children":[2,-1,4,6,8,10,12,14,16,-1,-1,-1,-1,-1,-1,-1,-1],"split_conditions":[1E0,-2.655329E-2,9.371E2,9.341E2,3.13E1,-6.8E0,2.1E0,-8.12E0,9.396E2,7.2678826E-3,3.6155388E-2,-9.084539E-3,1.8210584E-2,-3.7830402E-3,-9.140293E-3,1.6662702E-2,3.4501469E-3],"split_indices":[6,0,4,4,3,1,6,1,4,0,0,0,0,0,0,0,0],"split_type":[0,0,0,0,0,0,0,0,0,0,0,0,0,0,0,0,0],"sum_hessian":[9.56E2,2.4E1,9.32E2,5.32E2,4E2,1.33E2,3.99E2,7E1,3.3E2,1.16E2,1.7E1,3.74E2,2.5E1,2E1,5E1,1.46E2,1.84E2],"tree_param":{"num_deleted":"0","num_feature":"8","num_nodes":"17","size_leaf_vector":"1"}},{"base_weights":[-1.7498368E-2,-2.7340055E-2,-9.495003E-3,-1.6139051E-1,1.9294431E-3,-1.8553741E-2,-1.0952295E-2,1.2928447E-1,-1.3331165E-2,2.7569514E-3,2.7925525E-2,-3.945184E-3,3.0117272E-3],"categories":[],"categories_nodes":[],"categories_segments":[],"categories_sizes":[],"default_left":[0,0,0,0,0,0,0,0,0,0,0,0,0],"id":44,"left_children":[1,-1,3,5,7,-1,-1,9,11,-1,-1,-1,-1],"loss_changes":[2.3672974E0,0E0,1.5884594E0,4.190004E-2,1.651702E0,0E0,0E0,1.8461064E0,1.3843001E0,0E0,0E0,0E0,0E0],"parents":[2147483647,0,0,2,2,3,3,4,4,7,7,8,8],"right_children":[2,-1,4,6,8,-1,-1,10,12,-1,-1,-1,-1],"split_conditions":[1E0,-2.7340055E-2,2.22E1,2.11E1,3.43E1,-1.8553741E-2,-1.0952295E-2,3.13E1,9.371E2,2.7569514E-3,2.7925525E-2,-3.945184E-3,3.0117272E-3],"split_indices":[6,0,3,3,3,0,0,3,4,0,0,0,0],"split_type":[0,0,0,0,0,0,0,0,0,0,0,0,0],"sum_hessian":[9.26E2,2.1E1,9.05E2,6.3E1,8.42E2,1.3E1,5E1,9E1,7.52E2,6.4E1,2.6E1,4.42E2,3.1E2],"tree_param":{"num_deleted":"0","num_feature":"8","num_nodes":"13","size_leaf_vector":"1"}},{"base_weights":[-2.0259905E-3,-9.6851006E-2,5.1995073E-2,-1.5615006E-1,-2.003122E-2,8.820457E-3,1.4416477E-1,-1.1651098E-1,-3.701162E-1,-1.2428991E-1,7.149876E-2,1.8678614E-1,-1.9233232E-2,2.1736595E-1,-1.5972567E-1,-1.4769133E-2,1.8018798E-3,1.1604471E-2,-3.3388257E-2,1.970761E-2,-1.165878E-2,4.6348423E-2,2.8664463E-3,4.002869E-2,-7.865759E-3,-4.637867E-3,9.672123E-3,1.2815937E-2,4.6761177E-2,-2.87163E-2,-1.4801504E-3],"categories":[],"categories_nodes":[],"categories_segments":[],"categories_sizes":[],"default_left":[0,0,0,0,0,0,0,0,0,0,0,0,0,0,0,0,0,0,0,0,0,0,0,0,0,0,0,0,0,0,0],"id":45,"left_children":[1,3,5,7,9,11,13,15,17,19,21,23,25,27,29,-1,-1,-1,-1,-1,-1,-1,-1,-1,-1,-1,-1,-1,-1,-1,-1],"loss_changes":[4.793981E0,1.5280695E0,2.3511677E0,1.5281663E0,1.4455849E0,2.0523338E0,4.244815E0,1.5637639E0,7.934902E-1,5.9016335E-1,1.3668683E0,5.0959163E0,1.9116666E0,3.04316E0,9.966356E-1,0E0,0E0,0E0,0E0,0E0,0E0,0E0,0E0,0E0,0E0,0E0,0E0,0E0,0E0,0E0,0E0],"parents":[2147483647,0,0,1,1,2,2,3,3,4,4,5,5,6,6,7,7,8,8,9,9,10,10,11,11,12,12,13,13,14,14],"right_children":[2,4,6,8,10,12,14,16,18,20,22,24,26,28,30,-1,-1,-1,-1,-1,-1,-1,-1,-1,-1,-1,-1,-1,-1,-1,-1],"split_conditions":[5.15E0,3.4E0,-1.5E0,5.12E0,5.05E1,-5.4E0,1.03E1,5.03E0,-2E0,-5.1E0,4.86E0,5.45E0,5.71E0,5E-1,1.7E0,-1.4769133E-2,1.8018798E-3,1.1604471E-2,-3.3388257E-2,1.970761E-2,-1.165878E-2,4.6348423E-2,2.8664463E-3,4.002869E-2,-7.865759E-3,-4.637867E-3,9.672123E-3,1.2815937E-2,4.6761177E-2,-2.87163E-2,-1.4801504E-3],"split_indices":[0,2,5,0,3,5,2,0,2,5,0,0,0,5,5,0,0,0,0,0,0,0,0,0,0,0,0,0,0,0,0],"split_type":[0,0,0,0,0,0,0,0,0,0,0,0,0,0,0,0,0,0,0,0,0,0,0,0,0,0,0,0,0,0,0],"sum_hessian":[9.33E2,3.39E2,5.94E2,1.9E2,1.49E2,4.06E2,1.88E2,1.62E2,2.8E1,7E1,7.9E1,5.5E1,3.51E2,1.52E2,3.6E1,1.09E2,5.3E1,2E0,2.6E1,3E0,6.7E1,4E0,7.5E1,2.6E1,2.9E1,2.76E2,7.5E1,1.33E2,1.9E1,1.4E1,2.2E1],"tree_param":{"num_deleted":"0","num_feature":"8","num_nodes":"31","size_leaf_vector":"1"}},{"base_weights":[1.1609435E-2,-6.360634E-2,6.0786765E-2,1.17143214E-1,-8.4915355E-2,-9.4191335E-2,7.860719E-2,-6.372491E-2,3.986782E-1,-5.5870795E-1,-7.590444E-2,2.6670772E-1,-1.4877626E-1,1.7505914E-1,2.9036485E-2,-3.128655E-2,2.6134735E-3,-6.550995E-3,3.542734E-2,-6.8637542E-3,-7.757493E-2,-3.2555E-2,-5.0512343E-3,-2.035917E-2,1.0028265E-1,-3.9959423E-2,-6.005124E-4,1.8233042E-2,-7.927095E-3,3.783093E-2,1.3526392E-3],"categories":[],"categories_nodes":[],"categories_segments":[],"categories_sizes":[],"default_left":[0,0,0,0,0,0,0,0,0,0,0,0,0,0,0,0,0,0,0,0,0,0,0,0,0,0,0,0,0,0,0],"id":46,"left_children":[1,3,5,7,9,11,13,15,17,19,21,23,25,27,29,-1,-1,-1,-1,-1,-1,-1,-1,-1,-1,-1,-1,-1,-1,-1,-1],"loss_changes":[3.5619373E0,1.4703308E0,1.6159601E0,2.0957294E0,1.3499646E0,1.2098656E0,2.479852E0,8.3749306E-1,4.1193414E-1,9.773935E-1,1.3470011E0,4.533562E0,2.5714715E0,2.6001558E0,1.8163905E0,0E0,0E0,0E0,0E0,0E0,0E0,0E0,0E0,0E0,0E0,0E0,0E0,0E0,0E0,0E0,0E0],"parents":[2147483647,0,0,1,1,2,2,3,3,4,4,5,5,6,6,7,7,8,8,9,9,10,10,11,11,12,12,13,13,14,14],"right_children":[2,4,6,8,10,12,14,16,18,20,22,24,26,28,30,-1,-1,-1,-1,-1,-1,-1,-1,-1,-1,-1,-1,-1,-1,-1,-1],"split_conditions":[5.18E0,3.43E1,1.3E0,2.22E1,3.94E1,5.22E0,1.6E0,5E0,4.88E0,4.96E0,1E0,1E0,5.36E0,1E0,5.19E0,-3.128655E-2,2.6134735E-3,-6.550995E-3,3.542734E-2,-6.8637542E-3,-7.757493E-2,-3.2555E-2,-5.0512343E-3,-2.035917E-2,1.0028265E-1,-3.9959423E-2,-6.005124E-4,1.8233042E-2,-7.927095E-3,3.783093E-2,1.3526392E-3],"split_indices":[0,3,6,3,3,0,6,0,0,0,6,7,0,7,0,0,0,0,0,0,0,0,0,0,0,0,0,0,0,0,0],"split_type":[0,0,0,0,0,0,0,0,0,0,0,0,0,0,0,0,0,0,0,0,0,0,0,0,0,0,0,0,0,0,0],"sum_hessian":[9.61E2,3.79E2,5.82E2,3.9E1,3.4E2,5.9E1,5.23E2,2.4E1,1.5E1,5E0,3.35E2,7E0,5.2E1,1.76E2,3.47E2,5E0,1.9E1,1E0,1.4E1,3E0,2E0,1.1E1,3.24E2,5E0,2E0,1.4E1,3.8E1,1.48E2,2.8E1,8E0,3.39E2],"tree_param":{"num_deleted":"0","num_feature":"8","num_nodes":"31","size_leaf_vector":"1"}},{"base_weights":[5.388315E-3,-2.6023442E-2,9.78004E-2,-1.5164433E-1,-1.1360431E-2,4.303544E-1,4.9807847E-2,-2.128872E-1,2.4547447E-1,8.988634E-3,-1.2242849E-1,8.906038E-1,6.848793E-2,-1.3279356E-1,1.0040579E-1,-3.43608E-2,-1.1782966E-2,6.425626E-2,-7.520778E-3,1.4698089E-2,-4.2175208E-4,-2.88452E-3,-3.3483684E-2,1.304748E-1,4.7891226E-2,-4.569413E-2,1.5231564E-2,-1.943228E-2,1.2616708E-2,3.5164915E-2,5.4617696E-3],"categories":[],"categories_nodes":[],"categories_segments":[],"categories_sizes":[],"default_left":[0,0,0,0,0,0,0,0,0,0,0,0,0,0,0,0,0,0,0,0,0,0,0,0,0,0,0,0,0,0,0],"id":47,"left_children":[1,3,5,7,9,11,13,15,17,19,21,23,25,27,29,-1,-1,-1,-1,-1,-1,-1,-1,-1,-1,-1,-1,-1,-1,-1,-1],"loss_changes":[2.755796E0,1.2824149E0,3.7769358E0,1.8244104E0,1.4453676E0,4.8395596E0,1.9688168E0,7.885301E-1,2.0398293E0,1.3544456E0,2.471499E0,1.6106453E0,1.474299E0,1.5182388E0,1.7392257E0,0E0,0E0,0E0,0E0,0E0,0E0,0E0,0E0,0E0,0E0,0E0,0E0,0E0,0E0,0E0,0E0],"parents":[2147483647,0,0,1,1,2,2,3,3,4,4,5,5,6,6,7,7,8,8,9,9,10,10,11,11,12,12,13,13,14,14],"right_children":[2,4,6,8,10,12,14,16,18,20,22,24,26,28,30,-1,-1,-1,-1,-1,-1,-1,-1,-1,-1,-1,-1,-1,-1,-1,-1],"split_conditions":[5.54E0,4.92E0,9.331E2,-4E-1,1E0,5.64E0,3.96E1,9.357E2,4.86E0,-5.4E0,5.45E0,9.325E2,5.65E0,5.85E0,4.17E1,-3.43608E-2,-1.1782966E-2,6.425626E-2,-7.520778E-3,1.4698089E-2,-4.2175208E-4,-2.88452E-3,-3.3483684E-2,1.304748E-1,4.7891226E-2,-4.569413E-2,1.5231564E-2,-1.943228E-2,1.2616708E-2,3.5164915E-2,5.4617696E-3],"split_indices":[0,0,4,5,7,0,3,4,0,5,0,4,0,0,3,0,0,0,0,0,0,0,0,0,0,0,0,0,0,0,0],"split_type":[0,0,0,0,0,0,0,0,0,0,0,0,0,0,0,0,0,0,0,0,0,0,0,0,0,0,0,0,0,0,0],"sum_hessian":[9.45E2,7.05E2,2.4E2,7.2E1,6.33E2,2.9E1,2.11E2,6.3E1,9E0,5.35E2,9.8E1,1.2E1,1.7E1,4.5E1,1.66E2,1.3E1,5E1,3E0,6E0,4E1,4.95E2,7.7E1,2.1E1,2E0,1E1,2E0,1.5E1,3.3E1,1.2E1,1.3E1,1.53E2],"tree_param":{"num_deleted":"0","num_feature":"8","num_nodes":"31","size_leaf_vector":"1"}},{"base_weights":[-6.940657E-3,-8.631084E-2,3.873055E-2,-1.3742211E-1,4.9662445E-2,-2.930629E-1,5.023766E-2,-2.747063E-1,-8.180737E-2,1.1282977E-1,-1.3774213E-1,2.0544218E-2,-3.4078228E-1,6.562749E-2,-1.5743528E-1,-0E0,-2.4010045E-2,9.835475E-3,-9.765879E-3,1.7804943E-2,2.490564E-5,-2.0601025E-2,3.6550476E-3,-4.042607E-2,-1.0572833E-2,4.5441785E-3,2.220252E-2,-2.0742876E-2,2.1590257E-2],"categories":[],"categories_nodes":[],"categories_segments":[],"categories_sizes":[],"default_left":[0,0,0,0,0,0,0,0,0,0,0,0,0,0,0,0,0,0,0,0,0,0,0,0,0,0,0,0,0],"id":48,"left_children":[1,3,5,7,9,11,13,15,17,19,21,-1,23,25,27,-1,-1,-1,-1,-1,-1,-1,-1,-1,-1,-1,-1,-1,-1],"loss_changes":[3.4409115E0,2.4271703E0,2.2850485E0,1.8735366E0,1.1376456E0,6.206968E-1,1.8612537E0,5.1159763E-1,1.5154244E0,8.666185E-1,5.6021714E-1,0E0,5.21688E-1,9.662709E-1,1.8098032E0,0E0,0E0,0E0,0E0,0E0,0E0,0E0,0E0,0E0,0E0,0E0,0E0,0E0,0E0],"parents":[2147483647,0,0,1,1,2,2,3,3,4,4,5,5,6,6,7,7,8,8,9,9,10,10,12,12,13,13,14,14],"right_children":[2,4,6,8,10,12,14,16,18,20,22,-1,24,26,28,-1,-1,-1,-1,-1,-1,-1,-1,-1,-1,-1,-1,-1,-1],"split_conditions":[5.15E0,7.22E1,-1.089E1,9.357E2,5.11E0,5.17E0,1.03E1,-1.119E1,-7.15E0,9.365E2,3.1E0,2.0544218E-2,5.36E0,9.8E0,5.75E0,-0E0,-2.4010045E-2,9.835475E-3,-9.765879E-3,1.7804943E-2,2.490564E-5,-2.0601025E-2,3.6550476E-3,-4.042607E-2,-1.0572833E-2,4.5441785E-3,2.220252E-2,-2.0742876E-2,2.1590257E-2],"split_indices":[0,3,1,4,0,0,2,1,1,4,2,0,0,2,0,0,0,0,0,0,0,0,0,0,0,0,0,0,0],"split_type":[0,0,0,0,0,0,0,0,0,0,0,0,0,0,0,0,0,0,0,0,0,0,0,0,0,0,0,0,0],"sum_hessian":[9.46E2,3.46E2,6E2,2.52E2,9.4E1,1.9E1,5.81E2,7.1E1,1.81E2,7.1E1,2.3E1,1E0,1.8E1,5.42E2,3.9E1,6E0,6.5E1,2.9E1,1.52E2,3.5E1,3.6E1,1.4E1,9E0,9E0,9E0,5.22E2,2E1,3.2E1,7E0],"tree_param":{"num_deleted":"0","num_feature":"8","num_nodes":"29","size_leaf_vector":"1"}},{"base_weights":[5.817059E-3,-1.946784E-2,1.6241707E-1,-3.0195834E-2,2.3426329E-1,-2.014045E-1,2.2198395E-1,-9.9622756E-2,-2.4403909E-3,-7.349059E-2,6.298321E-2,-5.7923023E-2,-4.572544E-2,3.07334E-1,1.028822E-1,-3.6975585E-2,-7.10222E-3,4.035804E-3,-3.5194498E-3,1.7465245E-2,-4.2428542E-2,-1.97444E-2,1.0055946E-2,3.919395E-2,1.5676018E-2,-1.0712761E-2,2.9532224E-2],"categories":[],"categories_nodes":[],"categories_segments":[],"categories_sizes":[],"default_left":[0,0,0,0,0,0,0,0,0,0,0,0,0,0,0,0,0,0,0,0,0,0,0,0,0,0,0],"id":49,"left_children":[1,3,5,7,9,11,13,15,17,19,-1,21,-1,23,25,-1,-1,-1,-1,-1,-1,-1,-1,-1,-1,-1,-1],"loss_changes":[3.7870107E0,2.2187283E0,2.9291053E0,1.5080067E0,5.7457113E0,9.130644E-1,1.0963731E0,7.846594E-1,1.2432395E0,3.0799491E0,0E0,5.633781E-1,0E0,1.1776938E0,3.225491E0,0E0,0E0,0E0,0E0,0E0,0E0,0E0,0E0,0E0,0E0,0E0,0E0],"parents":[2147483647,0,0,1,1,2,2,3,3,4,4,5,5,6,6,7,7,8,8,9,9,11,11,13,13,14,14],"right_children":[2,4,6,8,10,12,14,16,18,20,-1,22,-1,24,26,-1,-1,-1,-1,-1,-1,-1,-1,-1,-1,-1,-1],"split_conditions":[5.69E0,2.1E0,-8.76E0,5.08E0,5.39E0,-1.011E1,5.84E0,9.327E2,5.27E0,5.26E0,6.298321E-2,5.83E0,-4.572544E-2,-3.6E0,5.91E0,-3.6975585E-2,-7.10222E-3,4.035804E-3,-3.5194498E-3,1.7465245E-2,-4.2428542E-2,-1.97444E-2,1.0055946E-2,3.919395E-2,1.5676018E-2,-1.0712761E-2,2.9532224E-2],"split_indices":[0,6,1,0,0,1,0,4,0,0,0,0,0,5,0,0,0,0,0,0,0,0,0,0,0,0,0],"split_type":[0,0,0,0,0,0,0,0,0,0,0,0,0,0,0,0,0,0,0,0,0,0,0,0,0,0,0],"sum_hessian":[9.51E2,8.19E2,1.32E2,7.87E2,3.2E1,1.8E1,1.14E2,2.23E2,5.64E2,2.1E1,1.1E1,1.4E1,4E0,6.5E1,4.9E1,5E0,2.18E2,2.47E2,3.17E2,1.3E1,8E0,7E0,7E0,2.3E1,4.2E1,2.6E1,2.3E1],"tree_param":{"num_deleted":"0","num_feature":"8","num_nodes":"27","size_leaf_vector":"1"}},{"base_weights":[1.24492245E-2,3.2656298E-3,1.4798592E-1,8.158367E-3,-1.8140422E-2,2.2188544E-2,1.0348842E-2,7.531297E-4,2.7519584E-1,1.3347473E-3,-0E0,-6.2500364E-3,9.761233E-4,1.0430196E-3,2.7339011E-2],"categories":[],"categories_nodes":[],"categories_segments":[],"categories_sizes":[],"default_left":[0,0,0,0,0,0,0,0,0,0,0,0,0,0,0],"id":50,"left_children":[1,3,5,7,-1,-1,9,11,13,-1,-1,-1,-1,-1,-1],"loss_changes":[1.1556674E0,9.737466E-1,1.0189267E0,1.684692E0,0E0,0E0,1.7976549E-3,7.56522E-1,3.6128986E-1,0E0,0E0,0E0,0E0,0E0,0E0],"parents":[2147483647,0,0,1,1,2,2,3,3,6,6,7,7,8,8],"right_children":[2,4,6,8,-1,-1,10,12,14,-1,-1,-1,-1,-1,-1],"split_conditions":[-6.61E0,1E1,1.03E1,8E0,-1.8140422E-2,2.2188544E-2,-6.44E0,1.3E0,-6.78E0,1.3347473E-3,-0E0,-6.2500364E-3,9.761233E-4,1.0430196E-3,2.7339011E-2],"split_indices":[1,2,2,2,0,0,1,6,1,0,0,0,0,0,0],"split_type":[0,0,0,0,0,0,0,0,0,0,0,0,0,0,0],"sum_hessian":[9.4E2,8.82E2,5.8E1,8.65E2,1.7E1,2.9E1,2.9E1,8.43E2,2.2E1,1.7E1,1.2E1,1.05E2,7.38E2,5E0,1.7E1],"tree_param":{"num_deleted":"0","num_feature":"8","num_nodes":"15","size_leaf_vector":"1"}},{"base_weights":[2.0816777E-2,-2.5876468E-1,2.8180268E-2,-0E0,-2.454615E-2,-1.756459E-2,3.4873843E-2,1.618679E-1,1.971942E-2,5.392331E-3,2.2576045E-2,2.3615647E-3,-9.667098E-3],"categories":[],"categories_nodes":[],"categories_segments":[],"categories_sizes":[],"default_left":[0,0,0,0,0,0,0,0,0,0,0,0,0],"id":51,"left_children":[1,3,5,-1,-1,-1,7,9,11,-1,-1,-1,-1],"loss_changes":[1.9297009E0,2.7583492E-1,1.5180953E0,0E0,0E0,0E0,1.7087941E0,1.0258904E0,1.1033139E0,0E0,0E0,0E0,0E0],"parents":[2147483647,0,0,1,1,2,2,6,6,7,7,8,8],"right_children":[2,4,6,-1,-1,-1,8,10,12,-1,-1,-1,-1],"split_conditions":[-1.089E1,-6.2E0,1E0,-0E0,-2.454615E-2,-1.756459E-2,-7.28E0,-8.12E0,1.03E1,5.392331E-3,2.2576045E-2,2.3615647E-3,-9.667098E-3],"split_indices":[1,2,6,0,0,0,1,1,2,0,0,0,0],"split_type":[0,0,0,0,0,0,0,0,0,0,0,0,0],"sum_hessian":[9.44E2,2.3E1,9.21E2,4E0,1.9E1,2.3E1,8.98E2,9.4E1,8.04E2,5.4E1,4E1,7.53E2,5.1E1],"tree_param":{"num_deleted":"0","num_feature":"8","num_nodes":"13","size_leaf_vector":"1"}},{"base_weights":[-8.041592E-3,-2.8937673E-2,1.24021515E-1,-4.687077E-2,8.4911466E-2,9.9915797E-1,8.022279E-2,-9.541449E-2,-1.5860691E-3,2.5350556E-1,-8.642378E-2,-9.941803E-3,1.2686986E0,3.6891047E-2,4.4301242E-1,-2.1106943E-2,-5.559981E-3,1.6558394E-3,-1.5164899E-2,8.148249E-3,6.954705E-2,-1.1725909E-2,1.5593921E-2,-0E0,1.2653722E-1,-7.8508747E-4,2.189886E-2,-1.6026163E-2,4.6982855E-2],"categories":[],"categories_nodes":[],"categories_segments":[],"categories_sizes":[],"default_left":[0,0,0,0,0,0,0,0,0,0,0,0,0,0,0,0,0,0,0,0,0,0,0,0,0,0,0,0,0],"id":52,"left_children":[1,3,5,7,9,11,13,15,17,19,21,-1,23,25,27,-1,-1,-1,-1,-1,-1,-1,-1,-1,-1,-1,-1,-1,-1],"loss_changes":[2.6295E0,1.6865937E0,4.7947884E0,1.5619243E0,3.273861E0,2.0889678E0,1.9007051E0,1.4497585E0,1.5790622E0,5.137709E0,9.7142893E-1,0E0,1.9593115E0,1.279056E0,1.362962E0,0E0,0E0,0E0,0E0,0E0,0E0,0E0,0E0,0E0,0E0,0E0,0E0,0E0,0E0],"parents":[2147483647,0,0,1,1,2,2,3,3,4,4,5,5,6,6,7,7,8,8,9,9,10,10,12,12,13,13,14,14],"right_children":[2,4,6,8,10,12,14,16,18,20,22,-1,24,26,28,-1,-1,-1,-1,-1,-1,-1,-1,-1,-1,-1,-1,-1,-1],"split_conditions":[5.71E0,7.75E1,5.72E0,3.1E0,5.25E0,-6.2E0,7.69E1,9.356E2,1.03E1,5.19E0,2E0,-9.941803E-3,1.3E0,5.94E0,5.73E0,-2.1106943E-2,-5.559981E-3,1.6558394E-3,-1.5164899E-2,8.148249E-3,6.954705E-2,-1.1725909E-2,1.5593921E-2,-0E0,1.2653722E-1,-7.8508747E-4,2.189886E-2,-1.6026163E-2,4.6982855E-2],"split_indices":[0,3,0,2,0,2,3,4,2,0,2,0,6,0,0,0,0,0,0,0,0,0,0,0,0,0,0,0,0],"split_type":[0,0,0,0,0,0,0,0,0,0,0,0,0,0,0,0,0,0,0,0,0,0,0,0,0,0,0,0,0],"sum_hessian":[9.54E2,8.25E2,1.29E2,7.14E2,1.11E2,5E0,1.24E2,3.43E2,3.71E2,5.6E1,5.5E1,1E0,4E0,1.12E2,1.2E1,4.4E1,2.99E2,3.32E2,3.9E1,4.6E1,1E1,4.6E1,9E0,1E0,3E0,9.4E1,1.8E1,2E0,1E1],"tree_param":{"num_deleted":"0","num_feature":"8","num_nodes":"29","size_leaf_vector":"1"}},{"base_weights":[4.055878E-3,-3.2150686E-2,1.1323553E-1,-2.6650812E-2,-4.4584638E-1,9.726427E-2,8.116551E-1,-2.2673847E-1,-1.5645096E-2,-3.074035E-4,-4.8811656E-1,3.3185486E-2,2.9627642E-1,1.1339321E-1,-3.1323243E-2,-1.477145E-2,-2.7079338E-2,6.57617E-2,-1.8701073E-3,-4.411314E-2,-1.3238586E-2,-1.02964E-2,1.0709652E-2,-8.054431E-3,3.0124735E-2,4.2864378E-3,-1.2045227E-2],"categories":[],"categories_nodes":[],"categories_segments":[],"categories_sizes":[],"default_left":[0,0,0,0,0,0,0,0,0,0,0,0,0,0,0,0,0,0,0,0,0,0,0,0,0,0,0],"id":53,"left_children":[1,3,5,7,9,11,13,15,17,-1,19,21,23,-1,25,-1,-1,-1,-1,-1,-1,-1,-1,-1,-1,-1,-1],"loss_changes":[3.7434E0,1.5540376E0,2.4626586E0,1.5158919E0,1.1708069E-1,2.9157913E0,2.7362204E0,5.4540634E-2,4.2525024E0,0E0,4.3702126E-4,2.9028409E0,1.8501534E0,0E0,4.8138138E-2,0E0,0E0,0E0,0E0,0E0,0E0,0E0,0E0,0E0,0E0,0E0,0E0],"parents":[2147483647,0,0,1,1,2,2,3,3,4,4,5,5,6,6,7,7,8,8,10,10,11,11,12,12,14,14],"right_children":[2,4,6,8,10,12,14,16,18,-1,20,22,24,-1,26,-1,-1,-1,-1,-1,-1,-1,-1,-1,-1,-1,-1],"split_conditions":[5.53E0,2.5E0,2.5E0,4.84E0,4.9E0,7.16E1,5.72E0,5.05E1,4.86E0,-3.074035E-4,5.45E0,5.69E0,5.57E0,1.1339321E-1,5.82E0,-1.477145E-2,-2.7079338E-2,6.57617E-2,-1.8701073E-3,-4.411314E-2,-1.3238586E-2,-1.02964E-2,1.0709652E-2,-8.054431E-3,3.0124735E-2,4.2864378E-3,-1.2045227E-2],"split_indices":[0,6,6,0,0,3,0,3,0,0,0,0,0,0,0,0,0,0,0,0,0,0,0,0,0,0,0],"split_type":[0,0,0,0,0,0,0,0,0,0,0,0,0,0,0,0,0,0,0,0,0,0,0,0,0,0,0],"sum_hessian":[9.43E2,7.08E2,2.35E2,7E2,8E0,2.31E2,4E0,3.5E1,6.65E2,1E0,7E0,1.76E2,5.5E1,2E0,2E0,2.8E1,7E0,5E0,6.6E2,5E0,2E0,6.7E1,1.09E2,9E0,4.6E1,1E0,1E0],"tree_param":{"num_deleted":"0","num_feature":"8","num_nodes":"27","size_leaf_vector":"1"}},{"base_weights":[-2.6133412E-2,-3.5743646E-2,1.509179E-1,-5.338089E-2,5.6310043E-2,2.6645917E-1,-4.475959E-1,-3.9004993E-2,-1.9551852E-1,2.929127E-2,3.6878157E-1,3.977903E-1,-3.1250554E-1,-5.4620214E-2,-1.6750908E-2,-1.8778133E-3,-1.336834E-2,7.392435E-2,-1.8201036E-2,5.0471217E-4,2.0173686E-2,1.5752034E-2,3.7002593E-2,1.0310677E-2,6.516575E-2,-4.4946657E-3,-4.2382553E-2,3.2554728E-3,-1.1563354E-2],"categories":[],"categories_nodes":[],"categories_segments":[],"categories_sizes":[],"default_left":[0,0,0,0,0,0,0,0,0,0,0,0,0,0,0,0,0,0,0,0,0,0,0,0,0,0,0,0,0],"id":54,"left_children":[1,3,5,7,9,11,13,15,17,19,21,23,25,-1,27,-1,-1,-1,-1,-1,-1,-1,-1,-1,-1,-1,-1,-1,-1],"loss_changes":[1.5915899E0,1.4509405E0,3.4204986E0,1.5014389E0,1.156682E0,3.2503197E0,7.2914207E-1,1.3359711E0,2.5763474E0,6.538277E-1,2.0237923E-2,3.6112347E0,3.571807E-1,0E0,4.563023E-2,0E0,0E0,0E0,0E0,0E0,0E0,0E0,0E0,0E0,0E0,0E0,0E0,0E0,0E0],"parents":[2147483647,0,0,1,1,2,2,3,3,4,4,5,5,6,6,7,7,8,8,9,9,10,10,11,11,12,12,14,14],"right_children":[2,4,6,8,10,12,14,16,18,20,22,24,26,-1,28,-1,-1,-1,-1,-1,-1,-1,-1,-1,-1,-1,-1,-1,-1],"split_conditions":[2.1E0,5.66E0,1E0,5.56E0,7.69E1,5.72E0,5.66E0,9.413E2,9.314E2,5.97E0,5.73E0,5.39E0,-1.011E1,-5.4620214E-2,5.83E0,-1.8778133E-3,-1.336834E-2,7.392435E-2,-1.8201036E-2,5.0471217E-4,2.0173686E-2,1.5752034E-2,3.7002593E-2,1.0310677E-2,6.516575E-2,-4.4946657E-3,-4.2382553E-2,3.2554728E-3,-1.1563354E-2],"split_indices":[6,0,7,0,3,0,0,4,4,0,0,0,1,0,0,0,0,0,0,0,0,0,0,0,0,0,0,0,0],"split_type":[0,0,0,0,0,0,0,0,0,0,0,0,0,0,0,0,0,0,0,0,0,0,0,0,0,0,0,0,0],"sum_hessian":[9.38E2,8.91E2,4.7E1,7.49E2,1.42E2,4E1,7E0,6.82E2,6.7E1,1.32E2,1E1,3.3E1,7E0,4E0,3E0,6.1E2,7.2E1,1E0,6.6E1,1.21E2,1.1E1,5E0,5E0,2.1E1,1.2E1,4E0,3E0,2E0,1E0],"tree_param":{"num_deleted":"0","num_feature":"8","num_nodes":"29","size_leaf_vector":"1"}},{"base_weights":[1.3086723E-2,-3.446505E-2,4.8691574E-2,-4.7490757E-2,1.057409E-1,1.5905653E-1,1.0718599E-2,-2.0100279E-1,-1.38983205E-2,1.4454132E-2,-2.1515068E-2,2.445934E-1,-1.4084792E-1,-8.351213E-3,2.81709E-1,-1.1350978E-2,-2.6760409E-2,4.521018E-2,-1.9015953E-3,-3.0929032E-3,-0E0,1.3571961E-2,2.1596873E-2,-4.1760714E-3,-3.0134644E-2,-2.831193E-3,5.928425E-3,3.412024E-2,-0E0],"categories":[],"categories_nodes":[],"categories_segments":[],"categories_sizes":[],"default_left":[0,0,0,0,0,0,0,0,0,0,0,0,0,0,0,0,0,0,0,0,0,0,0,0,0,0,0,0,0],"id":55,"left_children":[1,3,5,7,9,11,13,15,17,-1,19,21,23,25,27,-1,-1,-1,-1,-1,-1,-1,-1,-1,-1,-1,-1,-1,-1],"loss_changes":[1.6030555E0,7.370143E-1,2.2527776E0,1.888905E0,3.4402817E-1,3.5849233E0,2.1226213E0,4.2577505E-1,1.7083691E0,0E0,5.939886E-3,1.1556339E-1,5.855369E-1,8.437381E-1,1.131568E0,0E0,0E0,0E0,0E0,0E0,0E0,0E0,0E0,0E0,0E0,0E0,0E0,0E0,0E0],"parents":[2147483647,0,0,1,1,2,2,3,3,4,4,5,5,6,6,7,7,8,8,10,10,11,11,12,12,13,13,14,14],"right_children":[2,4,6,8,10,12,14,16,18,-1,20,22,24,26,28,-1,-1,-1,-1,-1,-1,-1,-1,-1,-1,-1,-1,-1,-1],"split_conditions":[5.21E1,2.1E0,5.85E1,-7.35E0,-1.011E1,9.395E2,-6.62E0,3.68E1,-7.31E0,1.4454132E-2,-9.56E0,-7.28E0,5.69E1,1.8E0,-6.54E0,-1.1350978E-2,-2.6760409E-2,4.521018E-2,-1.9015953E-3,-3.0929032E-3,-0E0,1.3571961E-2,2.1596873E-2,-4.1760714E-3,-3.0134644E-2,-2.831193E-3,5.928425E-3,3.412024E-2,-0E0],"split_indices":[3,6,3,1,1,4,1,3,1,0,1,1,3,6,1,0,0,0,0,0,0,0,0,0,0,0,0,0,0],"split_type":[0,0,0,0,0,0,0,0,0,0,0,0,0,0,0,0,0,0,0,0,0,0,0,0,0,0,0,0,0],"sum_hessian":[9.44E2,4.03E2,5.41E2,3.7E2,3.3E1,1.37E2,4.04E2,6.5E1,3.05E2,2.1E1,1.2E1,1.07E2,3E1,3.78E2,2.6E1,4.7E1,1.8E1,4E0,3.01E2,7E0,5E0,3E1,7.7E1,2.3E1,7E0,2.86E2,9.2E1,1.7E1,9E0],"tree_param":{"num_deleted":"0","num_feature":"8","num_nodes":"29","size_leaf_vector":"1"}},{"base_weights":[-1.4886667E-3,-5.1670223E-2,3.601103E-2,-7.224395E-2,1.5786803E-1,5.9049707E-2,-2.3508976E-1,-1.7257689E-1,-4.1254953E-2,1.8908726E-2,2.555659E-2,2.7941119E-2,1.4588748E-1,-3.6573462E-2,-1.576406E-2,-4.4101976E-2,-8.189233E-3,-1.0381504E-2,-1.7822828E-3,6.356662E-3,-2.6488646E-3,4.577828E-3,-6.719961E-3,2.6811304E-2,5.273121E-3],"categories":[],"categories_nodes":[],"categories_segments":[],"categories_sizes":[],"default_left":[0,0,0,0,0,0,0,0,0,0,0,0,0,0,0,0,0,0,0,0,0,0,0,0,0],"id":56,"left_children":[1,3,5,7,9,11,13,15,17,-1,19,21,23,-1,-1,-1,-1,-1,-1,-1,-1,-1,-1,-1,-1],"loss_changes":[1.774194E0,1.7444799E0,3.3565202E0,1.1187983E0,3.416376E-1,1.321137E0,1.9929385E-1,2.1648524E0,4.589321E-1,0E0,5.4699756E-2,1.208365E0,1.9053907E0,0E0,0E0,0E0,0E0,0E0,0E0,0E0,0E0,0E0,0E0,0E0,0E0],"parents":[2147483647,0,0,1,1,2,2,3,3,4,4,5,5,6,6,7,7,8,8,10,10,11,11,12,12],"right_children":[2,4,6,8,10,12,14,16,18,-1,20,22,24,-1,-1,-1,-1,-1,-1,-1,-1,-1,-1,-1,-1],"split_conditions":[5.21E1,2.1E0,1E0,9.357E2,-1.011E1,-6.74E0,-6.99E0,1.7E0,-7.35E0,1.8908726E-2,-9.56E0,9.395E2,9.365E2,-3.6573462E-2,-1.576406E-2,-4.4101976E-2,-8.189233E-3,-1.0381504E-2,-1.7822828E-3,6.356662E-3,-2.6488646E-3,4.577828E-3,-6.719961E-3,2.6811304E-2,5.273121E-3],"split_indices":[3,6,7,4,1,1,1,6,1,0,1,4,4,0,0,0,0,0,0,0,0,0,0,0,0],"split_type":[0,0,0,0,0,0,0,0,0,0,0,0,0,0,0,0,0,0,0,0,0,0,0,0,0],"sum_hessian":[9.4E2,4.03E2,5.37E2,3.68E2,3.5E1,4.96E2,4.1E1,8.5E1,2.83E2,2.1E1,1.4E1,3.67E2,1.29E2,4E0,3.7E1,1.2E1,7.3E1,4.8E1,2.35E2,8E0,6E0,2.92E2,7.5E1,3.7E1,9.2E1],"tree_param":{"num_deleted":"0","num_feature":"8","num_nodes":"25","size_leaf_vector":"1"}},{"base_weights":[2.1035965E-3,-3.079406E-2,8.7483786E-2,5.2314408E-2,-6.875157E-2,2.3174879E-1,5.4403767E-2,7.1906514E-2,-4.437726E-1,-1.9628738E-1,-4.9535602E-2,4.6009E-1,4.864469E-2,1.7340635E-1,8.699589E-3,1.8765653E-3,5.091996E-2,6.44574E-3,-6.355948E-2,-1.9610366E-2,1.5540056E-2,-1.5623965E-3,-1.3360217E-2,-3.0890396E-2,5.025071E-2,-1.0561855E-2,3.1763934E-2,-8.175153E-3,2.945305E-2,-6.6174017E-3,7.563285E-3],"categories":[],"categories_nodes":[],"categories_segments":[],"categories_sizes":[],"default_left":[0,0,0,0,0,0,0,0,0,0,0,0,0,0,0,0,0,0,0,0,0,0,0,0,0,0,0,0,0,0,0],"id":57,"left_children":[1,3,5,7,9,11,13,15,17,19,21,23,25,27,29,-1,-1,-1,-1,-1,-1,-1,-1,-1,-1,-1,-1,-1,-1,-1,-1],"loss_changes":[2.6430247E0,2.1408982E0,1.2091167E0,2.055234E0,1.1077323E0,1.9336357E0,1.1496477E0,5.526689E0,1.6065942E0,1.1971889E0,1.4126287E0,3.252986E0,1.8413962E0,3.2309942E0,1.2410413E0,0E0,0E0,0E0,0E0,0E0,0E0,0E0,0E0,0E0,0E0,0E0,0E0,0E0,0E0,0E0,0E0],"parents":[2147483647,0,0,1,1,2,2,3,3,4,4,5,5,6,6,7,7,8,8,9,9,10,10,11,11,12,12,13,13,14,14],"right_children":[2,4,6,8,10,12,14,16,18,20,22,24,26,28,30,-1,-1,-1,-1,-1,-1,-1,-1,-1,